#define IP1_WT {7186, -11954, 9545, -3789, -6340, -12799, 7786, -12723, -12486, -8729, -9400, -10764, -11205, 767, 2708, 9405, 11771, -11411, 1334, 13570, 4736, -10221, -803, 5905, 202, 8667, -45, -4478, 3748, 1490, 9256, -8238, 8612, -1584, -9056, 13084, 669, -6669, -3943, 2048, -6022, -12630, 5449, -7371, -8874, 11243, 12484, 9349, 6964, -67, -7145, -11, 6640, 7661, -495, 13686, 1473, -1648, -6030, 7178, -4432, -1979, 9929, -3342, 12243, 2567, -12159, 9665, 1736, 10703, 6162, 14806, 10056, 10366, 2947, 12076, -8529, 549, -12423, -3027, 11869, -916, 8571, 4421, 459, 9641, -219, -8946, 4916, 10174, 3721, -882, 12114, -12399, -5469, 12053, -5898, 8473, 263, -5658, -9381, -11030, 4871, -4475, -10852, -3483, 9074, 11561, 8524, -3313, 12640, -5557, 8823, 6655, 11106, -9250, 12318, 3723, 9461, -621, -6240, -10962, 8072, 639, -8553, -1092, 8472, 1814, 13608, 12893, -6662, -9039, 9520, 10999, 11708, 1990, 3340, -2821, 2871, 9788, 5795, 4771, 7685, -1962, 551, 7529, 6858, 5802, 3628, -1768, 4172, 11945, 11959, -615, 2157, 3169, 13964, -893, 9405, -11721, 402, 10462, 5409, -7216, 10435, -11112, -2129, -6651, 9870, -10943, 12696, -6859, -1525, -10466, 1068, -7176, -4321, 4930, 3270, 5967, 3937, -1564, -3665, 4593, -12987, 3309, 9593, -4329, -2647, -11640, -10079, -3344, 325, 12521, -10770, -9770, 8242, -373, -7154, -3673, -9080, -10743, -5280, -2903, -9343, -7402, -10161, -5302, 13541, -8542, 5673, -13980, 12728, 1269, 9078, 78, 5349, 1243, 4215, -5416, -4334, 8859, -5687, 8683, -2733, -7466, -11264, 1414, -8805, 6808, 5976, -132, 4828, -1112, 9607, 6068, -3196, 4832, 9226, 9597, 1426, -2770, -4591, 2960, 12519, -8290, 6635, -593, -815, -11787, 5120, 4214, -5213, 7645, 2438, -10848, -4342, 12452, 3223, 5957, -3067, -8242, 14272, 7984, -3537, -8424, -11752, -6356, -6589, 4286, -12429, 4581, 8375, -10180, 534, -103, -6722, -1415, 8913, -3481, 4522, 12101, -11804, 3871, 10683, -5822, -11888, -490, 6206, 608, 8681, -5989, 6687, -4748, 9303, 11770, 3544, -3960, 2903, 16472, -475, -9592, -9568, -2884, 10623, -13664, -5129, -5220, 1519, -4013, -7753, -11063, 10447, 3778, -3579, -9228, -1200, -4825, 9526, 9477, -2966, -2533, -3103, -9005, 12690, -3509, -7329, -4267, 8525, 7400, 8851, -4643, 2502, -9416, 959, 4642, 5507, 7426, -9271, 170, -3860, -10108, -5172, -1321, 11098, 10756, 10534, -9999, -11479, -10081, 6771, 4413, -13961, 6238, 9260, -12205, 2799, 8683, -4910, 7609, 4853, -10863, 6620, 7832, 8744, -11536, 11074, 12055, -2407, -5012, 11257, -1867, 2849, -11658, 6019, -12392, 8289, -7117, -8976, -3640, -4112, 4705, -2311, 13416, -8534, -5988, 3666, 10401, 9795, -5681, 9371, 5910, -4135, -9571, 5115, -6385, 2483, -2347, -8838, -8651, -3214, 495, -2503, 11171, 2731, 3903, -5508, 11822, 2321, -6057, -6792, 1803, -3283, 2, -8921, 9092, 4759, 8200, 3030, -2531, -8042, -10, 10356, -11297, 2981, 12060, -8494, -2776, 1346, -2521, 7353, 1541, 10930, 7200, -9008, -12846, -12838, -29, -11873, -13805, -5417, 852, -6147, 2601, 12990, 3357, -5030, 8119, 6732, 15296, 11678, 7777, -11710, 3776, 14216, 11071, -4083, -7863, 9699, 5593, 12899, -2742, 6942, 1182, 5485, -10890, -9531, -12220, 7601, -3439, 6093, -8633, -340, 6476, 7137, 10602, 9354, 1297, -9862, -3413, -3132, -8033, 9278, 6147, -8106, 6248, -7222, -10564, 4504, -3146, 5500, 725, 14962, 412, 410, -7107, 8426, -3772, 13151, -1264, -1418, -11220, -4280, 7601, 12734, -8579, -7873, -444, -9331, -8586, 6964, -4769, 3872, -6334, -6430, 14491, -7149, 9689, 10567, 13484, -8142, 8617, -33, -13528, -10142, 9389, -3987, -9184, -1525, 5596, 1491, 14291, -4560, -6644, 7907, 786, 10072, -220, 5963, -8214, 11459, -9379, -11051, -1237, -11985, 4228, -12984, 14388, -10716, -8536, 11764, 9984, 5285, -11076, 5082, -8292, 11710, 4104, -10532, -12259, 397, 10279, -882, 1885, -1195, 8302, -10430, -6982, -242, 8949, -87, -6452, -5691, 7158, 3440, 3385, 6642, -12055, -8283, 5330, -10775, 3978, -2937, 11902, -3024, -9878, -3357, 12367, 2034, -2909, -5298, 6856, 2351, -2867, -12137, -552, -5689, -5215, -2369, 11508, 8219, -1255, -6923, 7542, -10412, -6501, -11865, 2387, 11234, -2394, -8385, -2191, 6654, 4064, 10966, 6513, 2574, -632, -977, -154, 12240, 10232, 10249, 187, -12141, -6512, 9991, -3338, 6636, 1170, 8888, 6320, 4617, 8009, -7124, 1290, -8529, 2893, 12947, -6201, 2617, 10087, 11730, 13171, -739, -11661, -5004, -5259, 8604, 1779, -12305, 8292, -6288, -12204, -7500, 7433, 1306, -2383, 6911, 2657, 4703, 5060, -6155, 6818, -14018, 6255, -11576, 3995, -4075, -3486, 3160, 6003, 7744, 12933, 6831, -8527, -12892, 12413, 8959, -7422, 3359, 12360, -595, 10592, 707, -11603, 936, 4218, 456, -11256, 5357, -14534, -9443, -8053, -9502, 10086, -5343, 8125, 10578, 781, -7692, -12225, -7409, 9350, -6856, 7161, 5854, -8050, -8913, 4571, 7140, 12360, 6357, -3515, 3796, 7464, -9476, -3382, 5332, 10447, -5788, 10954, -9834, -8721, 9457, 125, 6695, 5823, -12035, 5635, -6435, 491, 11876, 6527, 7896, 4256, 6951, 9353, -13403, -9975, 11324, 10856, -9105, -5682, 219, 2314, 10800, 2952, -1972, -1336, -11690, -11661, -1244, -1043, 7856, 5115, -3449, -72, 10183, -4286, -12233, -11170, -6635, 2405, 3911, -10901, 11875, 2054, -11908, -4412, -614, 5623, -2791, 6337, 1859, 2361, -11508, 6163, -8574, 9385, -7690, 10880, 12233, 320, -6599, -10823, -10937, 8455, 8204, -8071, 488, 2230, 2491, 3650, -8839, -6148, 4744, -1394, -7650, -11457, -7642, 10881, -3759, -1558, -1894, -8763, 2245, 8948, 13103, -12848, 10163, 5947, -10082, 2926, -10900, 12101, -12031, -1391, 11357, -10011, -558, -632, 6828, -12031, 12083, -13012, -3119, 8986, -6974, -3653, 5316, 7966, 7974, 13161, -2164, 9482, -9380, 12533, 13164, -5206, 6114, -5262, 13869, -1377, 11447, -4992, -12745, 9124, 10994, -7916, 6882, 246, 11932, -8775, 5061, 4623, -7764, 12722, -10586, -6485, 7366, -11271, 7332, -4725, -2283, -11241, 1789, 10277, -7802, 14036, 1455, -177, -3680, 427, 8754, 1423, -9265, 7052, -6353, 12522, 288, 4873, -9110, -5898, -10131, -9174, -8669, 1862, 13402, -7888, 11781, 7583, 8228, -4728, 11236, 11546, 11578, 12981, -9416, -11519, 11786, 8383, -7221, -1815, 8176, 9274, 4864, -12297, 55, 3993, -6784, 6330, -11110, -9402, -5852, -5619, -8567, 9686, -1100, -3026, 3757, 11145, -7632, -198, -7482, -12029, 12166, 8030, -3833, -7299, 7458, -9704, -8313, 3879, -4512, -3747, 1547, -11446, -11517, 12738, 3197, 4337, -6455, 11135, 9498, -11789, -2555, -8686, 5547, 5129, 9587, -9568, 12794, 5010, 10156, 7142, -10325, 960, 3326, 6814, 11998, -2748, 10156, 3001, 1317, -13295, -2616, -6377, 6915, 3333, 8051, -11084, 11750, -12107, 9606, 3145, -4579, -1609, -7557, 604, 2622, -10699, 381, 120, -6138, -8635, 619, -12260, 354, -1292, -6631, -3391, -406, 2040, -8688, -5178, 11543, 10202, 10814, 5407, 483, 1988, -2095, 4313, -2595, 5396, -4069, -10151, 10044, 4485, -10318, 8695, 10223, -6571, -2994, 4849, 8247, -4625, 12953, -284, 5640, -9954, 3105, -10302, 9578, 1943, -7482, -11655, -2201, 1027, 12702, 1361, -9585, 7460, -7957, -6382, -11047, -2137, -910, 4393, 4194, -4672, -11120, 6908, -12384, -3792, 10731, -4196, -9371, 6226, 5720, 5, 7011, 5554, -13558, 11746, -1159, 9762, 7684, 9045, -8122, -6936, 3309, 6517, 4103, -7632, 6567, 1804, 8403, 9774, 10426, -9003, -1860, -13819, -5138, 6842, 7309, -12995, -1191, 3489, -1455, 4439, 3917, 5384, 8002, -575, -10915, -11060, 9434, 13280, -12698, 5504, -3091, -9446, 5267, -11628, 11110, 9402, -1124, -1486, -12512, 9382, 6786, -8813, -10060, -7487, -7659, -8202, -292, 7440, 2622, -10885, 7398, -5627, 2007, -1884, 10725, 6190, -4151, 2373, -10640, -2157, -9045, 3444, 5915, 4873, -189, -11422, -2612, -8885, -1474, 10333, -2626, -13101, 4837, 5658, 4269, -8229, 12354, -6603, 13561, -4891, 3319, -1341, -898, 619, 12295, -7358, -5622, 12832, 6312, 209, 610, -7607, 13894, 10238, -12250, -1225, 3696, -10905, 10659, -10408, -5069, 7670, 12684, -11631, 6021, -205, 10251, 12444, -869, -3236, 11521, -6104, -12552, -8813, -9268, -3768, -3880, -11026, 6766, -10128, 7945, -10948, 11449, 7238, 6865, 8072, 1020, -7772, -8564, -78, 1407, 170, -8799, 7380, 11580, 11049, 8847, 8012, -28, 5404, 12797, -13155, -7420, 2827, -1670, -5554, 9206, 6433, 1823, -7213, -8247, 9466, 9543, 8821, 2000, -3410, 1800, -3691, -7499, 8998, 12990, -6157, 9899, -2034, 7492, 9894, 6277, -2075, -5330, 4583, 1940, 10347, 5878, 4966, 3587, 10885, -5843, -1173, -12630, -4558, 6397, 1432, -1211, 9114, -2559, -6490, 3008, 4829, -1045, -8195, 1130, -7879, 3535, -12834, 6789, 6678, 2011, 5742, 8158, -108, -7531, 13756, 8170, 8451, 1112, -5130, -6855, -6911, 1853, 6488, -6386, 8254, 1930, 10702, 8713, 10436, -3820, 11410, -10023, -4741, 136, -3582, 993, -3860, 1245, 4228, -7972, 4695, -9143, -435, 11602, 2679, -4700, -572, 11488, 12184, 3677, 251, -11547, -13800, -2608, -3927, -6910, 11860, -10790, 57, -3313, 1451, 11070, -11393, -13167, -4363, 7197, -11667, 184, 5017, -12804, -1123, 10164, -7120, 12958, -944, 6364, -8980, 11361, -10220, -1271, -12478, 9154, -2352, -12116, -3007, 4183, -1148, -6626, -7391, -12031, -9839, 10714, 4388, 9999, -778, -3182, -8707, -1885, 13537, -2287, 11354, 11762, -8330, -6131, -550, 2229, 8078, -3998, -9744, 7541, -13351, -3981, 7913, -11568, -9961, 9616, 9059, 2104, -7338, -877, 3586, -9477, 10231, 3572, 8358, 7190, -2872, 4449, 7612, -10988, -11489, -8507, -7217, -1226, 11163, 5836, 1874, 2339, 12350, -4093, -5648, 7353, -13038, 8444, -6043, -1678, -1850, 9843, 8385, 12907, 2726, 9303, 7864, 3523, -10086, 6645, 4113, -8867, -2135, -1261, 7894, 9036, 3307, -12521, -9232, 3220, 13032, -2380, 11479, 9800, -6195, -11924, -521, 12644, -8095, -902, -13873, 1793, 5525, 14752, 6833, -10534, -10878, -23, 8516, -11900, 734, 3652, 11008, 2418, -2845, 10484, -1145, -7381, 2628, 3048, -8591, -10678, 1175, 9519, -10703, 2953, -8873, -3351, -3358, 16391, -27, -4820, -6818, 2701, 5478, -4524, 3959, 5342, -10509, -11034, 12827, 4761, 12221, 5216, 3618, 2008, 13405, -904, -2451, -10663, -4707, -6045, -2398, 9146, 648, 7365, -7576, -5330, 4179, 11830, -4793, 4768, 9901, -346, -4959, 3667, 4650, 4976, -4165, 7713, -12848, 6547, -6441, 8558, 8977, -9552, 11194, -2692, -1980, 2525, -11159, -347, -1615, 9951, 87, -6220, 5157, -11981, 10867, -11843, 6744, -9083, -5832, 7737, 6342, -11037, 1894, 11602, -10402, -5528, 8507, -967, -7593, 5579, -4311, -7344, -121, -9528, 13224, 10337, -5610}
#define IP1_BIAS {10192, -4198, 25268, 1299, 13759, 9217, 12376, -7026, 2491, -8967, 24923, -25916, -8506, 14420, 18874, -9520, 11329, -14728, 11962, -5635, 28104, -21278, 1852, 16164, -13460, -15773, -22948, 5289, 14816, -17914, 8516, -5170, 742, -19715, 5663, -24683, 25653, 24087, -7121, -4323, -3700, 17682, -18990, -12049, -5116, -25963, -14740, -10652, -18602, 1656, -25041, -18320, 12991, 2362, 8926, 19120, -6134, -21278, 16351, -23212, 13496, -503, 23145, 31170}
#define IP2_WT {-3048, -4004, -4428, -15580, -4768, -9859, -5600, 6745, -4895, 12121, -9645, -14151, -1441, 9451, -8339, -21990, 22042, -12817, -2739, -808, 2413, 18784, 16516, -16173, -18267, -16988, 2128, -8360, 19634, 19321, -9030, 548, 18064, -14022, 11392, -10987, 14395, -4400, -1292, -15395, 1852, -6011, -17147, -16334, -2122, 17838, -2452, -775, -2512, 9158, -17046, -2600, -13365, 7566, 17401, -1469, 11485, -3693, -14883, 8209, 11654, 13011, -14270, -8212, -8633, -13407, -4005, -10252, -10605, -13827, -3930, -12388, 2381, 10742, 13365, 16704, -16954, 3266, -5304, 7130, 1640, -5685, 3793, -14283, -6844, -10782, 4877, -2625, 9520, 8384, -12955, -3268, 10525, 5493, -10793, 8869, 21347, 13579, -17357, 11434, -8470, -12160, 2675, -11958, -19848, -3523, -6763, -7557, 14135, 11775, 2025, -15624, 13547, 7891, -4873, -10764, 8189, 3072, 17524, 3506, -6820, 9419, -8750, -17138, -3298, 14065, 3499, -18841, 11652, -1127, 11189, -5643, -8751, 5413, 919, -11710, -9517, -4605, -13560, -6948, 5691, -14377, -8850, -6834, 9033, -1238, -10507, -7278, 7033, -4066, 2417, 5062, -7239, -9217, 11233, 11961, -9521, 8770, -7656, 4153, -4585, 5689, -225, 6988, -9898, 18280, 13135, -11463, -7609, -14604, -5363, 8636, -5856, -7356, -13837, -5187, 5943, -13157, 381, 14330, -1648, -9324, -10722, 9873, -17914, 7383, -6748, -4823, 13642, 10037, 5325, 6975, 7935, 14934, 4699, -3404, 54, 11776, -15568, 300, -11063, 674, 20, -10144, -6343, 11471, -7598, -27, 3586, 9013, -9036, 4889, -13415, -2802, -11416, -9901, 5724, -362, -11157, 17043, -10310, 3348, -1724, 8341, -6157, -12514, 16708, -7273, -8994, 11889, 1082, -12623, 12280, 6315, 3827, -2993, 8557, 9072, -5994, -3858, -2651, -13778, -13083, -6927, -14078, 18889, 12467, -6115, -15776, -970, -18180, 8680, -4717, -10454, -17211, 5626, 8906, -782, -10966, 1212, -14831, 6135, -8805, -12601, 3924, -3413, 10746, -4930, 11032, 16739, 12825, -7627, 5814, -13926, 2771, -17544, 2878, -15367, -8212, -2366, -3602, 1689, -10168, 9260, -8970, -14948, -1102, 15434, 1441, 13083, 3633, 13318, -3488, 18786, -4925, -2594, 2636, 8235, 9883, 9118, 3925, 13481, 387, -1249, 11857, 4119, 2621, -322, 13160, 11361, 18594, -12123, 8363, -6247, -10211, -14082, 3897, 6588, 10064, -17903, 12544, -646, -3544, 1507, 6700, -8688, 8794, 10680, -18224, -3805, -15745, -20893, 186, 13515, -1069, 1167, 6994, 2525, -2687, -16022, 12089, -5685, -8923, 4744, -9294, 10648, -16394, 4166, 3452, 10698, -5783, 3128, 9464, -12119, 13510, 3595, -14143, -9119, 665, 9823, 5188, -13139, 2314, -14818, 12709, -11343, 3249, 4618, -13799, -12757, -5862, -76, 10306, 10990, 9279, -9539, -9239, -5370, -350, -11696, -12111, -5959, -1664, 14545, -5152, -9514, 12883, -4497, -4202, -12121, -12449, -3977, 9737, -15194, 2194, 4249, 3360, -11686, 8286, -11666, 8948, 15404, -11957, -4855, -577, -12039, 17810, 10760, -8115, 5647, -282, -17168, 11623, -1636, 1824, 898, 2354, 9120, -3085, 13326, 2707, 8578, -12940, 15657, 10017, -3023, 6126, 15344, 1512, 14758, 12227, 3761, 8890, 14981, -6482, 5358, 11740, 1367, -9071, 1637, 10104, -640, 1712, -3462, 2377, 374, 5644, -13470, -6326, 3503, -10783, 1605, -17321, 1281, -5663, -11952, 3298, 7819, -20616, 4661, 14532, 4357, 9047, -19254, -9143, 2735, -12558, 7968, -14872, 4514, 6956, 13420, -8610, 9656, 10313, -6583, -7709, 4853, -17738, 5449, -11095, 16730, 10551, 9119, -5547, -13207, 12019, -14118, 1027, 4540, 12899, -7199, 6379, -4588, 10801, 13205, 19513, 3249, 10359, 1579, -16590, 10686, 15158, 5492, 576, 15066, 3895, 2678, -8714, 20211, -1830, 3990, -1450, 8140, 3217, -10692, -307, -8837, -11694, 2163, -16255, -4515, -7247, 9638, 3644, 4108, 14326, 11087, 7537, 14687, -14233, -14263, 5222, 12025, 7235, 5563, -14932, -13174, -1150, -13573, -8310, 1003, -1163, -775, 12856, -6867, 6894, 12690, 10953, -5511, -7673, -6845, 10706, 6810, 9883, -16622, 11471, -4192, 4989, -11205, -1911, 4062, -15503, 3384, -1634, 11628, -13949, -11877, 734, -15153, -6749, -14795, 1477, 1902, 14680, -7156, -612, 75, 2372, -3806, -9707, 13671, -13793, 16743, 6042, -5746, 8211, 5559, 491, 7521, -1767, -2659, 4829, -7393, -9774, -4712, -5093, -15157, 12870, -1679, -13186, -8339, 9719, -9777, 4107, 2469, -4681, 14256, -3826, -94, -10411, 5269, -6773, -6899, -3656, 12153, 10610, -2577, -3917, 2296, -3266, 19569, 15037, -2122, 2115, -2538, -6415, 6239, -12018, 3297, -9175, 3420, 11918, -2585, 4402, -6584, 6036, 7763, -7785, 13356, 1322, 12655, -11361, 1522, -9214, -662, 1837, 1900, 7146, 3637, 13392, 3651, 5425, 7480, -12915, -2268, -4413, -3601, -1201, -2153, -9248, 10537, 2550, -12966, 11050, -4016, 14112, -4516, 13938, 8579, 949, -3308, -6415, -11626, 5623, 5905, 7368, -12041, 19439, -1492, 7503, 6222, 2004, -3905, -8278, 12136, -9775, -8080, 502, -9277, -10303, -16223, -15479, 2763, 15371, -10566, 8385, -9912, -10219, -15202, 17455, 5576, -409, -9860, -5402, 5602, -12288, -13686, 331, -3249, 4365, 4293, -6672, 12599, -4437, -6926, 13209, -4334, -347, 3351, -8266, -8619, 4372, -16894, 10900, 5480, -2045, 807, -13139, 7257, -4018, 11807, -7678, 4616, 6859, 149, 6608, 12607, -14318, -11484, -7224, 17655, -5799, -11726, -13060, 7399, -16240, 4617, -980, 11867, 3049, -9254, 16277, -15254, -1105, 7072, -10912, 3358, 13405, -10832, -12473, 970, -3319, -7960, 4309, -4499, 3871, -16696, 9244, 4055, -13660, -2045, 5567, 15478, -7551, -5629, -17307, -10451, -6336, 8779, -4541, 13849, 10986, 7862, 1689, 15714, 4548, 10993, -4613, 3070, 1351, 14136, -1529, -11281, 11023, 16128, 14207, -7136, -13545, 4171, 12681, 13338, 3336, 8978, -211, 5271, -6440, 7623, 9217, 5917, -602, 8081, 14015, 5262, -17000, 9833, 16518, 9538, -8664, -13626, -11314, -18121, 11385, 14709, 12518, -15097, 12887, -21, 3994, -9411, -11979, 11601, 12482, 7977, 11791, 6340, 4014, 11115, 4485, 5693, -4342, -14086, -9801, -2288, -15429, 4545, -14397, -115, 14476, -1964, 12422, -3846, -14769, -12255, -9169, 9456, -7224, -18195, 11622, 8873, 7037, -840, -10297, -1092, -14543, -487, -181, 10856, 9760, -11241, 5681, 4901, 731, 6400, -8870, 15045, 8392, -1183, 7026, -8746, 3264, -14377, -16900, -2826, -1459, -11565, 12323, -7788, -6106, 14469, 10001, -8648, 16680, 18026, -11824, 8606, 15597, -12247, -11939, 3313, 9754, 7571, -7362, -2068, -6946, 13453, -1244, 9143, -6202, 3002, -8537, -14615, 2158, 15295, -2994, -13217, 5135, 15488, 402, -5765, -17241, -10462, 8314, 2288, 14936, -2134, 7529, 1943, -9562, -14100, -18272, 1377, 5483, 19355, 16635, -9144, 5360, -15365, -1899, -15761, -7452, -7519, 14055, 10767, 14693, -13131, -4300, 7262, -15895, -7366, 6118, 12117, 1635, -9994, 1597, 10745, -1273, 13483, 11693, 6520, -1194, -14884, -3144, 4836, 7154, 13287, -13116, 2096, 4038, 4407, -8819, -5293, -9976, 3616, 13195, -9447, 14304, 3422, -1019, -8078, -4792, -2320, -7925, -14925, 9493, -3451, -3631, 15030, -6299, 6588, -12270, 2366, 516, 868, -6262, -15763, 10465, 5319, 1123, -7440, -9333, 8946, 13700, 10417, -2458, 16804, 9022, 11508, 18885, -11383, -11975, 13672, -657, 15320, 9453, -12186, 2799, -12285, -2006, 1816, -5231, 18612, 7488, -16701}
#define IP2_BIAS {8974, 4113, -16841, 3490, -11574, -1963, 17252, -17005, -95, -9459, 2734, -20961, -1922, 917, -13494, 358}
#define IP3_WT {9481, 12907, 1743, -10142, -2026, -1513, -3888, -17118, 4352, -10311, -14972, -9240, -4767, -3943, 702, 5165, -6458, -6525, 1962, -3062, -5150, 10281, -4041, 3540, -13523, 6623, 1564, -3020, 1179, -3297, -15938, 7739, 12817, 2802, -6970, 2492, -1456, 24, -12944, 9673, 13073, 3845, 4572, -34, 13401, 8967, -9819, 12644, 3527, 8640, -14840, -17057, 4659, 10121, -2222, -11438, -12391, -10591, -11910, -47, 9943, 1971, 8911, -17267}
#define IP3_BIAS {-2563, 20285, 257, -5443}