#define LINEAR_1_WT {7186, 12243, 13608, 325, -4342, -2966, -8534, 6732, 3872, 6642, 2617, -6856, -11908, 7974, 11578, 11998, 9578, 9434, 610, 2000, -10023, -3182, -1261, -904, -11954, 2567, 12893, 12521, 12452, -2533, -5988, 15296, -6334, -12055, 10087, 7161, -4412, 13161, 12981, -2748, 1943, 13280, -7607, -3410, -4741, -8707, 7894, -2451, 9545, -12159, -6662, -10770, 3223, -3103, 3666, 11678, -6430, -8283, 11730, 5854, -614, -2164, -9416, 10156, -7482, -12698, 13894, 1800, 136, -1885, 9036, -10663, -3789, 9665, -9039, -9770, 5957, -9005, 10401, 7777, 14491, 5330, 13171, -8050, 5623, 9482, -11519, 3001, -11655, 5504, 10238, -3691, -3582, 13537, 3307, -4707, -6340, 1736, 9520, 8242, -3067, 12690, 9795, -11710, -7149, -10775, -739, -8913, -2791, -9380, 11786, 1317, -2201, -3091, -12250, -7499, 993, -2287, -12521, -6045, -12799, 10703, 10999, -373, -8242, -3509, -5681, 3776, 9689, 3978, -11661, 4571, 6337, 12533, 8383, -13295, 1027, -9446, -1225, 8998, -3860, 11354, -9232, -2398, 7786, 6162, 11708, -7154, 14272, -7329, 9371, 14216, 10567, -2937, -5004, 7140, 1859, 13164, -7221, -2616, 12702, 5267, 3696, 12990, 1245, 11762, 3220, 9146, -12723, 14806, 1990, -3673, 7984, -4267, 5910, 11071, 13484, 11902, -5259, 12360, 2361, -5206, -1815, -6377, 1361, -11628, -10905, -6157, 4228, -8330, 13032, 648, -12486, 10056, 3340, -9080, -3537, 8525, -4135, -4083, -8142, -3024, 8604, 6357, -11508, 6114, 8176, 6915, -9585, 11110, 10659, 9899, -7972, -6131, -2380, 7365, -8729, 10366, -2821, -10743, -8424, 7400, -9571, -7863, 8617, -9878, 1779, -3515, 6163, -5262, 9274, 3333, 7460, 9402, -10408, -2034, 4695, -550, 11479, -7576, -9400, 2947, 2871, -5280, -11752, 8851, 5115, 9699, -33, -3357, -12305, 3796, -8574, 13869, 4864, 8051, -7957, -1124, -5069, 7492, -9143, 2229, 9800, -5330, -10764, 12076, 9788, -2903, -6356, -4643, -6385, 5593, -13528, 12367, 8292, 7464, 9385, -1377, -12297, -11084, -6382, -1486, 7670, 9894, -435, 8078, -6195, 4179, -11205, -8529, 5795, -9343, -6589, 2502, 2483, 12899, -10142, 2034, -6288, -9476, -7690, 11447, 55, 11750, -11047, -12512, 12684, 6277, 11602, -3998, -11924, 11830, 767, 549, 4771, -7402, 4286, -9416, -2347, -2742, 9389, -2909, -12204, -3382, 10880, -4992, 3993, -12107, -2137, 9382, -11631, -2075, 2679, -9744, -521, -4793, 2708, -12423, 7685, -10161, -12429, 959, -8838, 6942, -3987, -5298, -7500, 5332, 12233, -12745, -6784, 9606, -910, 6786, 6021, -5330, -4700, 7541, 12644, 4768, 9405, -3027, -1962, -5302, 4581, 4642, -8651, 1182, -9184, 6856, 7433, 10447, 320, 9124, 6330, 3145, 4393, -8813, -205, 4583, -572, -13351, -8095, 9901, 11771, 11869, 551, 13541, 8375, 5507, -3214, 5485, -1525, 2351, 1306, -5788, -6599, 10994, -11110, -4579, 4194, -10060, 10251, 1940, 11488, -3981, -902, -346, -11411, -916, 7529, -8542, -10180, 7426, 495, -10890, 5596, -2867, -2383, 10954, -10823, -7916, -9402, -1609, -4672, -7487, 12444, 10347, 12184, 7913, -13873, -4959, 1334, 8571, 6858, 5673, 534, -9271, -2503, -9531, 1491, -12137, 6911, -9834, -10937, 6882, -5852, -7557, -11120, -7659, -869, 5878, 3677, -11568, 1793, 3667, 13570, 4421, 5802, -13980, -103, 170, 11171, -12220, 14291, -552, 2657, -8721, 8455, 246, -5619, 604, 6908, -8202, -3236, 4966, 251, -9961, 5525, 4650, 4736, 459, 3628, 12728, -6722, -3860, 2731, 7601, -4560, -5689, 4703, 9457, 8204, 11932, -8567, 2622, -12384, -292, 11521, 3587, -11547, 9616, 14752, 4976, -10221, 9641, -1768, 1269, -1415, -10108, 3903, -3439, -6644, -5215, 5060, 125, -8071, -8775, 9686, -10699, -3792, 7440, -6104, 10885, -13800, 9059, 6833, -4165, -803, -219, 4172, 9078, 8913, -5172, -5508, 6093, 7907, -2369, -6155, 6695, 488, 5061, -1100, 381, 10731, 2622, -12552, -5843, -2608, 2104, -10534, 7713, 5905, -8946, 11945, 78, -3481, -1321, 11822, -8633, 786, 11508, 6818, 5823, 2230, 4623, -3026, 120, -4196, -10885, -8813, -1173, -3927, -7338, -10878, -12848, 202, 4916, 11959, 5349, 4522, 11098, 2321, -340, 10072, 8219, -14018, -12035, 2491, -7764, 3757, -6138, -9371, 7398, -9268, -12630, -6910, -877, -23, 6547, 8667, 10174, -615, 1243, 12101, 10756, -6057, 6476, -220, -1255, 6255, 5635, 3650, 12722, 11145, -8635, 6226, -5627, -3768, -4558, 11860, 3586, 8516, -6441, -45, 3721, 2157, 4215, -11804, 10534, -6792, 7137, 5963, -6923, -11576, -6435, -8839, -10586, -7632, 619, 5720, 2007, -3880, 6397, -10790, -9477, -11900, 8558, -4478, -882, 3169, -5416, 3871, -9999, 1803, 10602, -8214, 7542, 3995, 491, -6148, -6485, -198, -12260, 5, -1884, -11026, 1432, 57, 10231, 734, 8977, 3748, 12114, 13964, -4334, 10683, -11479, -3283, 9354, 11459, -10412, -4075, 11876, 4744, 7366, -7482, 354, 7011, 10725, 6766, -1211, -3313, 3572, 3652, -9552, 1490, -12399, -893, 8859, -5822, -10081, 2, 1297, -9379, -6501, -3486, 6527, -1394, -11271, -12029, -1292, 5554, 6190, -10128, 9114, 1451, 8358, 11008, 11194, 9256, -5469, 9405, -5687, -11888, 6771, -8921, -9862, -11051, -11865, 3160, 7896, -7650, 7332, 12166, -6631, -13558, -4151, 7945, -2559, 11070, 7190, 2418, -2692, -8238, 12053, -11721, 8683, -490, 4413, 9092, -3413, -1237, 2387, 6003, 4256, -11457, -4725, 8030, -3391, 11746, 2373, -10948, -6490, -11393, -2872, -2845, -1980, 8612, -5898, 402, -2733, 6206, -13961, 4759, -3132, -11985, 11234, 7744, 6951, -7642, -2283, -3833, -406, -1159, -10640, 11449, 3008, -13167, 4449, 10484, 2525, -1584, 8473, 10462, -7466, 608, 6238, 8200, -8033, 4228, -2394, 12933, 9353, 10881, -11241, -7299, 2040, 9762, -2157, 7238, 4829, -4363, 7612, -1145, -11159, -9056, 263, 5409, -11264, 8681, 9260, 3030, 9278, -12984, -8385, 6831, -13403, -3759, 1789, 7458, -8688, 7684, -9045, 6865, -1045, 7197, -10988, -7381, -347, 13084, -5658, -7216, 1414, -5989, -12205, -2531, 6147, 14388, -2191, -8527, -9975, -1558, 10277, -9704, -5178, 9045, 3444, 8072, -8195, -11667, -11489, 2628, -1615, 669, -9381, 10435, -8805, 6687, 2799, -8042, -8106, -10716, 6654, -12892, 11324, -1894, -7802, -8313, 11543, -8122, 5915, 1020, 1130, 184, -8507, 3048, 9951, -6669, -11030, -11112, 6808, -4748, 8683, -10, 6248, -8536, 4064, 12413, 10856, -8763, 14036, 3879, 10202, -6936, 4873, -7772, -7879, 5017, -7217, -8591, 87, -3943, 4871, -2129, 5976, 9303, -4910, 10356, -7222, 11764, 10966, 8959, -9105, 2245, 1455, -4512, 10814, 3309, -189, -8564, 3535, -12804, -1226, -10678, -6220, 2048, -4475, -6651, -132, 11770, 7609, -11297, -10564, 9984, 6513, -7422, -5682, 8948, -177, -3747, 5407, 6517, -11422, -78, -12834, -1123, 11163, 1175, 5157, -6022, -10852, 9870, 4828, 3544, 4853, 2981, 4504, 5285, 2574, 3359, 219, 13103, -3680, 1547, 483, 4103, -2612, 1407, 6789, 10164, 5836, 9519, -11981, -12630, -3483, -10943, -1112, -3960, -10863, 12060, -3146, -11076, -632, 12360, 2314, -12848, 427, -11446, 1988, -7632, -8885, 170, 6678, -7120, 1874, -10703, 10867, 5449, 9074, 12696, 9607, 2903, 6620, -8494, 5500, 5082, -977, -595, 10800, 10163, 8754, -11517, -2095, 6567, -1474, -8799, 2011, 12958, 2339, 2953, -11843, -7371, 11561, -6859, 6068, 16472, 7832, -2776, 725, -8292, -154, 10592, 2952, 5947, 1423, 12738, 4313, 1804, 10333, 7380, 5742, -944, 12350, -8873, 6744, -8874, 8524, -1525, -3196, -475, 8744, 1346, 14962, 11710, 12240, 707, -1972, -10082, -9265, 3197, -2595, 8403, -2626, 11580, 8158, 6364, -4093, -3351, -9083, 11243, -3313, -10466, 4832, -9592, -11536, -2521, 412, 4104, 10232, -11603, -1336, 2926, 7052, 4337, 5396, 9774, -13101, 11049, -108, -8980, -5648, -3358, -5832, 12484, 12640, 1068, 9226, -9568, 11074, 7353, 410, -10532, 10249, 936, -11690, -10900, -6353, -6455, -4069, 10426, 4837, 8847, -7531, 11361, 7353, 16391, 7737, 9349, -5557, -7176, 9597, -2884, 12055, 1541, -7107, -12259, 187, 4218, -11661, 12101, 12522, 11135, -10151, -9003, 5658, 8012, 13756, -10220, -13038, -27, 6342, 6964, 8823, -4321, 1426, 10623, -2407, 10930, 8426, 397, -12141, 456, -1244, -12031, 288, 9498, 10044, -1860, 4269, -28, 8170, -1271, 8444, -4820, -11037, -67, 6655, 4930, -2770, -13664, -5012, 7200, -3772, 10279, -6512, -11256, -1043, -1391, 4873, -11789, 4485, -13819, -8229, 5404, 8451, -12478, -6043, -6818, 1894, -7145, 11106, 3270, -4591, -5129, 11257, -9008, 13151, -882, 9991, 5357, 7856, 11357, -9110, -2555, -10318, -5138, 12354, 12797, 1112, 9154, -1678, 2701, 11602, -11, -9250, 5967, 2960, -5220, -1867, -12846, -1264, 1885, -3338, -14534, 5115, -10011, -5898, -8686, 8695, 6842, -6603, -13155, -5130, -2352, -1850, 5478, -10402, 6640, 12318, 3937, 12519, 1519, 2849, -12838, -1418, -1195, 6636, -9443, -3449, -558, -10131, 5547, 10223, 7309, 13561, -7420, -6855, -12116, 9843, -4524, -5528, 7661, 3723, -1564, -8290, -4013, -11658, -29, -11220, 8302, 1170, -8053, -72, -632, -9174, 5129, -6571, -12995, -4891, 2827, -6911, -3007, 8385, 3959, 8507, -495, 9461, -3665, 6635, -7753, 6019, -11873, -4280, -10430, 8888, -9502, 10183, 6828, -8669, 9587, -2994, -1191, 3319, -1670, 1853, 4183, 12907, 5342, -967, 13686, -621, 4593, -593, -11063, -12392, -13805, 7601, -6982, 6320, 10086, -4286, -12031, 1862, -9568, 4849, 3489, -1341, -5554, 6488, -1148, 2726, -10509, -7593, 1473, -6240, -12987, -815, 10447, 8289, -5417, 12734, -242, 4617, -5343, -12233, 12083, 13402, 12794, 8247, -1455, -898, 9206, -6386, -6626, 9303, -11034, 5579, -1648, -10962, 3309, -11787, 3778, -7117, 852, -8579, 8949, 8009, 8125, -11170, -13012, -7888, 5010, -4625, 4439, 619, 6433, 8254, -7391, 7864, 12827, -4311, -6030, 8072, 9593, 5120, -3579, -8976, -6147, -7873, -87, -7124, 10578, -6635, -3119, 11781, 10156, 12953, 3917, 12295, 1823, 1930, -12031, 3523, 4761, -7344, 7178, 639, -4329, 4214, -9228, -3640, 2601, -444, -6452, 1290, 781, 2405, 8986, 7583, 7142, -284, 5384, -7358, -7213, 10702, -9839, -10086, 12221, -121, -4432, -8553, -2647, -5213, -1200, -4112, 12990, -9331, -5691, -8529, -7692, 3911, -6974, 8228, -10325, 5640, 8002, -5622, -8247, 8713, 10714, 6645, 5216, -9528, -1979, -1092, -11640, 7645, -4825, 4705, 3357, -8586, 7158, 2893, -12225, -10901, -3653, -4728, 960, -9954, -575, 12832, 9466, 10436, 4388, 4113, 3618, 13224, 9929, 8472, -10079, 2438, 9526, -2311, -5030, 6964, 3440, 12947, -7409, 11875, 5316, 11236, 3326, 3105, -10915, 6312, 9543, -3820, 9999, -8867, 2008, 10337, -3342, 1814, -3344, -10848, 9477, 13416, 8119, -4769, 3385, -6201, 9350, 2054, 7966, 11546, 6814, -10302, -11060, 209, 8821, 11410, -778, -2135, 13405, -5610}
#define LINEAR_1_BIAS {10192, -4198, 25268, 1299, 13759, 9217, 12376, -7026, 2491, -8967, 24923, -25916, -8506, 14420, 18874, -9520, 11329, -14728, 11962, -5635, 28104, -21278, 1852, 16164, -13460, -15773, -22948, 5289, 14816, -17914, 8516, -5170, 742, -19715, 5663, -24683, 25653, 24087, -7121, -4323, -3700, 17682, -18990, -12049, -5116, -25963, -14740, -10652, -18602, 1656, -25041, -18320, 12991, 2362, 8926, 19120, -6134, -21278, 16351, -23212, 13496, -503, 23145, 31170}
#define LINEAR_2_WT {-3048, 22042, 18064, -2512, -8633, 1640, 21347, 13547, 11652, 9033, -4585, 5943, 7935, 3586, -6157, -2651, 8906, 5814, 1441, 11857, 12544, 6994, 9464, -13799, -5152, 8948, 2354, 8890, -6326, -9143, -11095, 19513, -1450, 7537, 12856, -1911, -612, 4829, -3826, 2115, 1322, -4413, -6415, 502, -5402, -8266, 6608, 16277, 9244, 1689, 12681, 16518, 12482, 14476, -14543, 3264, 15597, 2158, -9562, 14693, -1194, 14304, 516, 18885, -4004, -12817, -14022, 9158, -13407, -5685, 13579, 7891, -1127, -1238, 5689, -13157, 14934, 9013, -12514, -13778, -782, -13926, 13083, 4119, -646, 2525, -12119, -12757, -9514, 15404, 9120, 14981, 3503, 2735, 16730, 3249, 8140, 14687, -6867, 4062, 75, -7393, -94, -2538, 12655, -3601, -11626, -9277, 5602, -8619, 12607, -15254, 4055, 15714, 13338, 9538, 7977, -1964, -487, -14377, -12247, 15295, -14100, -13131, -14884, 3422, 868, -11383, -4428, -2739, 11392, -17046, -4005, 3793, -17357, -4873, 11189, -10507, -225, 381, 4699, -9036, 16708, -13083, -10966, 2771, 3633, 2621, -3544, -2687, 13510, -5862, 12883, -11957, -3085, -6482, -10783, -12558, 10551, 10359, 3217, -14233, 6894, -15503, 2372, -9774, -10411, -6415, -11361, -1201, 5623, -10303, -12288, 4372, -14318, -1105, -13660, 4548, 3336, -8664, 11791, 12422, -181, -16900, -11939, -2994, -18272, -4300, -3144, -1019, -6262, -11975, -15580, -808, -10987, -2600, -10252, -14283, 11434, -10764, -5643, -7278, 6988, 14330, -3404, 4889, -7273, -6927, 1212, -17544, 13318, -322, 1507, -16022, 3595, -76, -4497, -4855, 13326, 5358, 1605, 7968, 9119, 1579, -10692, -14263, 12690, 3384, -3806, -4712, 5269, 6239, 1522, -2153, 5905, -16223, -13686, -16894, -11484, 7072, -2045, 10993, 8978, -13626, 6340, -3846, 10856, -2826, 3313, -13217, 1377, 7262, 4836, -8078, -15763, 13672, -4768, 2413, 14395, -13365, -10605, -6844, -8470, 8189, -8751, 7033, -9898, -1648, 54, -13415, -8994, -14078, -14831, 2878, -3488, 13160, 6700, 12089, -14143, 10306, -4202, -577, 2707, 11740, -17321, -14872, -5547, -16590, -307, 5222, 10953, -1634, -9707, -5093, -6773, -12018, -9214, -9248, 7368, -15479, 331, 10900, -7224, -10912, 5567, -4613, -211, -11314, 4014, -14769, 9760, -1459, 9754, 5135, 5483, -15895, 7154, -4792, 10465, -657, -9859, 18784, -4400, 7566, -13827, -10782, -12160, 3072, 5413, -4066, 18280, -9324, 11776, -2802, 11889, 18889, 6135, -15367, 18786, 11361, -8688, -5685, -9119, 10990, -12121, -12039, 8578, 1367, 1281, 4514, -13207, 10686, -8837, 12025, -5511, 11628, 13671, -15157, -6899, 3297, -662, 10537, -12041, 2763, -3249, 5480, 17655, 3358, 15478, 3070, 5271, -18121, 11115, -12255, -11241, -11565, 7571, 15488, 19355, -7366, 13287, -2320, 5319, 15320, -5600, 16516, -1292, 17401, -3930, 4877, 2675, 17524, 919, 2417, 13135, -10722, -15568, -11416, 1082, 12467, -8805, -8212, -4925, 18594, 8794, -8923, 665, 9279, -12449, 17810, -12940, -9071, -5663, 6956, 12019, 15158, -11694, 7235, -7673, -13949, -13793, 12870, -3656, -9175, 1837, 2550, 19439, 15371, 4365, -2045, -5799, 13405, -7551, 1351, -6440, 11385, 4485, -9169, 5681, 12323, -7362, 402, 16635, 6118, -13116, -7925, 1123, 9453, 6745, -16173, -15395, -1469, -12388, -2625, -11958, 3506, -11710, 5062, -11463, 9873, 300, -9901, -12623, -6115, -12601, -2366, -2594, -12123, 10680, 4744, 9823, -9539, -3977, 10760, 15657, 1637, -11952, 13420, -14118, 5492, 2163, 5563, -6845, -11877, 16743, -1679, 12153, 3420, 1900, -12966, -1492, -10566, 4293, 807, -11726, -10832, -5629, 14136, 7623, 14709, 5693, 9456, 4901, -7788, -2068, -5765, -9144, 12117, 2096, -14925, -7440, -12186, -4895, -18267, 1852, 11485, 2381, 9520, -19848, -6820, -9517, -7239, -7609, -17914, -11063, 5724, 12280, -15776, 3924, -3602, 2636, 8363, -18224, -9294, 5188, -9239, 9737, -8115, 10017, 10104, 3298, -8610, 1027, 576, -16255, -14932, 10706, 734, 6042, -13186, 10610, 11918, 7146, 11050, 7503, 8385, -6672, -13139, -13060, -12473, -17307, -1529, 9217, 12518, -4342, -7224, 731, -6106, -6946, -17241, 5360, 1635, 4038, 9493, -9333, 2799, 12121, -16988, -6011, -3693, 10742, 8384, -3523, 9419, -4605, -9217, -14604, 7383, 674, -362, 6315, -970, -3413, 1689, 8235, -6247, -3805, 10648, -13139, -5370, -15194, 5647, -3023, -640, 7819, 9656, 4540, 15066, -4515, -13174, 6810, -15153, -5746, -8339, -2577, -2585, 3637, -4016, 6222, -9912, 12599, 7257, 7399, 970, -10451, -11281, 5917, -15097, -14086, -18195, 6400, 14469, 13453, -10462, -15365, -9994, 4407, -3451, 8946, -12285, -9645, 2128, -17147, -14883, 13365, -12955, -6763, -8750, -13560, 11233, -5363, -6748, 20, -11157, 3827, -18180, 10746, -10168, 9883, -10211, -15745, -16394, 2314, -350, 2194, -282, 6126, 1712, -20616, 10313, 12899, 3895, -7247, -1150, 9883, -6749, 8211, 9719, -3917, 4402, 13392, 14112, 2004, -10219, -4437, -4018, -16240, -3319, -6336, 11023, -602, 12887, -9801, 11622, -8870, 10001, -1244, 8314, -1899, 1597, -8819, -3631, 13700, -2006, -14151, -8360, -16334, 8209, 16704, -3268, -7557, -17138, -6948, 11961, 8636, -4823, -10144, 17043, -2993, 8680, -4930, 9260, 9118, -14082, -20893, 4166, -14818, -11696, 4249, -17168, 15344, -3462, 4661, -6583, -7199, 2678, 9638, -13573, -16622, -14795, 5559, -9777, 2296, -6584, 3651, -4516, -3905, -15202, -6926, 11807, 4617, -7960, 8779, 16128, 8081, -21, -2288, 8873, 15045, -8648, 9143, 2288, -15761, 10745, -5293, 15030, 10417, 1816, -1441, 19634, -2122, 11654, -16954, 10525, 14135, -3298, 5691, -9521, -5856, 13642, -6343, -10310, 8557, -4717, 11032, -8970, 3925, 3897, 186, 3452, 12709, -12111, 3360, 11623, 1512, 2377, 14532, -7709, 6379, -8714, 3644, -8310, 11471, 1477, 491, 4107, -3266, 6036, 5425, 13938, -8278, 17455, 13209, -7678, -980, 4309, -4541, 14207, 14015, 3994, -15429, 7037, 8392, 16680, -6202, 14936, -7452, -1273, -9976, -6299, -2458, -5231, 9451, 19321, 17838, 13011, 3266, 5493, 11775, 14065, -14377, 8770, -7356, 10037, 11471, 3348, 9072, -10454, 16739, -14948, 13481, 6588, 13515, 10698, -11343, -5959, -11686, -1636, 14758, 374, 4357, 4853, -4588, 20211, 4108, 1003, -4192, 1902, 7521, 2469, 19569, 7763, 7480, 8579, 12136, 5576, -4334, 4616, 11867, -4499, 13849, -7136, 5262, -9411, 4545, -840, -1183, 18026, 3002, -2134, -7519, 13483, 3616, 6588, 16804, 18612, -8339, -9030, -2452, -14270, -5304, -10793, 2025, 3499, -8850, -7656, -13837, 5325, -7598, -1724, -5994, -17211, 12825, -1102, 387, 10064, -1069, -5783, 3249, -1664, 8286, 1824, 12227, 5644, 9047, -17738, 10801, -1830, 14326, -1163, 4989, 14680, -1767, -4681, 15037, -7785, -12915, 949, -9775, -409, -347, 6859, 3049, 3871, 10986, -13545, -17000, -11979, -14397, -10297, 7026, -11824, -8537, 7529, 14055, 11693, 13195, -12270, 9022, 7488, -21990, 548, -775, -8212, 7130, 8869, -15624, -18841, -6834, 4153, -5187, 6975, -27, 8341, -3858, 5626, -7627, 15434, -1249, -17903, 1167, 3128, 4618, 14545, -11666, 898, 3761, -13470, -19254, 5449, 13205, 3990, 11087, -775, -11205, -7156, -2659, 14256, -2122, 13356, -2268, -3308, -8080, -9860, 3351, 149, -9254, -16696, 7862, 4171, 9833, 11601, -115, -1092, -8746, 8606, -14615, 1943, 10767, 6520, -9447, 2366, 11508, -16701}
#define LINEAR_2_BIAS {8974, 4113, -16841, 3490, -11574, -1963, 17252, -17005, -95, -9459, 2734, -20961, -1922, 917, -13494, 358}
#define LINEAR_3_WT {9481, -2026, 4352, -4767, -6458, -5150, -13523, 1179, 12817, -1456, 13073, 13401, 3527, 4659, -12391, 9943, 12907, -1513, -10311, -3943, -6525, 10281, 6623, -3297, 2802, 24, 3845, 8967, 8640, 10121, -10591, 1971, 1743, -3888, -14972, 702, 1962, -4041, 1564, -15938, -6970, -12944, 4572, -9819, -14840, -2222, -11910, 8911, -10142, -17118, -9240, 5165, -3062, 3540, -3020, 7739, 2492, 9673, -34, 12644, -17057, -11438, -47, -17267}
#define LINEAR_3_BIAS {-2563, 20285, 257, -5443}
