#define LINEAR_1_WT {-8181, 15418, -16860, 16305, -20301, -4554, 4632, 6798, -18497, 19437, 7159, 16912, -12525, -1324, -12764, -14697, -14587, -921, 13263, -1987, 2297, -170, -382, -6780, -4994, 7095, -13571, 3668, -687, -6052, 1143, -11829, 7130, -3000, -14602, -7683, -8053, -4253, -3406, 2268, -5448, -3630, -4624, -6990, 11811, 13582, -10600, -13956, -12026, -6737, -14390, -16534, -1889, 16443, 7325, -6820, 15622, -145, -1263, -16781, 18094, 1832, -1720, 15426, -5614, -5479, -4508, 6845, 1524, -14852, -1818, 11532, -2530, -1084, 3064, 6778, -7522, 9126, -10218, -7378, 301, -1029, 13553, -5506, 3421, -3613, 971, 4084, 7073, 8216, -3535, 13881, 4943, 5470, 4704, 9458, 907, 9790, -2974, -5948, -1234, 676, -3800, 685, -4466, -4540, -5743, -5355, -5520, 3794, 12916, -4439, 7324, -2707, 2670, -6066, 5769, -1751, -10561, 8309, -4816, -176, 3554, -6186, 9316, 15910, -4583, 3302, 7442, -7225, -9579, -11685, -9109, -10154, -5379, -9438, -805, -13700, -1881, -11282, -10263, 7937, -9467, -4551, 504, 6423, -11637, -10258, -1597, -2726, -11159, 14705, 4496, -2296, 12860, 208, 10365, 15759, 14887, 15998, 456, -9376, -3958, 3178, -6801, 19509, -4568, 9056, 4015, 12436, 10576, 5842, -8526, -1938, -1376, -9067, 7292, 3040, 3668, -7747, 12344, -9250, -10690, 12793, -6504, -7934, 3785, -648, -5990, 8483, 14740, -9112, -2994, 11095, -10873, 15786, -10842, -6376, 3724, 10607, -12987, 5902, 3464, 22381, -2033, 975, -9489, -6735, 367, 15, 13699, -5698, -10513, -3084, -9289, 937, -9210, 10810, -4084, 19589, -1107, -5384, -8090, -7509, 13310, -15428, -11324, -5747, -13973, 235, -1777, -6120, -12033, 563, 1769, 9027, 1449, 7564, -2852, -9023, -5982, -6412, -14622, -6227, -6490, 10611, -1310, 1530, 10600, 2436, 1135, -11244, 5020, 2205, 2689, 10204, 1522, 814, -6284, 8037, 8630, -3537, -1442, 4441, -9121, -2099, 9233, 2456, -12625, -217, -10767, -8247, -4771, 1843, 2119, 730, -7364, 5814, -4660, 6404, 7596, 8010, -4131, 828, -2889, -572, -1672, -2339, 596, 3931, -5087, -4471, -8011, 8887, -1460, -7811, -496, -6384, -152, -3042, -5900, -1728, 15997, -7870, 19329, -7003, 1644, -8443, 946, -2, -1693, 1720, -1413, 1959, 2414, 340, -1545, 11853, -331, 6272, 7036, 1109, -5185, -13471, -9674, -16854, 1532, -11795, -10015, -5772, 3504, -11602, -5070, 5689, -193, -65, 3723, 6858, -4321, 1164, -1390, 6556, -14761, 13226, 1385, -9312, 3368, -12660, -819, 4369, 2862, 12453, -1601, -5059, -4239, -326, 5287, 10628, -771, 7713, 4929, 9349, 7584, 6393, 529, 3398, 2217, -9806, 7362, 3768, 3260, -4120, 3659, -5689, -7632, 16273, 1023, -3334, -1388, -961, -11560, 12781, 9637, -9191, 2267, 19617, -11118, 14089, -19186, -11087, 15136, 17980, -22056, 13126, 7196, 21671, -9813, 3876, -15402, -15001, -12735, 7847, 16055, -9360, -11247, 12588, -6162, -7505, -5432, 8138, -6905, 16707, -6159, 4384, -4813, -6731, 18182, -20501, -14867, -12411, -13034, -4126, -1749, -12768, -10496, 3501, -318, 5420, 16081, 12159, -5470, -13604, -4019, -20517, -10671, -18196, 1489, 16899, 10881, -2379, 18448, 5621, -20728, -12862, 17237, -2145, -2283, 19708, -6281, 1657, -12718, 9720, 2958, -3101, 1519, 5562, -5123, -4850, 4149, 3467, -2244, 369, -761, -3504, -7778, 7358, 6173, -3907, 3525, 6745, 7881, 10627, 10018, 2398, -3397, 4300, 84, -5257, 6322, 6766, -5236, 7032, -9351, -5069, -5346, 9813, -179, -4177, -3660, -7882, -9477, -9006, -4222, 5589, 12847, -12842, 12714, -7863, -3775, -6362, 1280, 5314, -4506, 3931, -929, 354, -10824, -4148, 12016, 14685, -11020, 5387, 2907, -9579, -5251, -9800, -7454, -13762, -679, -8528, -10171, -6592, -771, -7190, -8521, 5055, -8997, -9631, -2985, 672, -12972, -3949, 6091, -2275, -14879, 13504, -284, -4848, 9737, -8951, 9575, 10912, 17193, 16889, -3800, -3099, -7154, -683, 569, 16154, -9331, 6746, 9539, 4877, 5998, -82, -12602, -2827, 7145, -3868, 6422, 8460, 3163, -9560, 15168, 2413, -10661, 14850, -743, -1024, 2556, -2079, -7655, 3375, 8021, -9529, -2284, 18300, -19476, 27568, -13137, -14336, 17603, 20307, -26767, 17752, 8886, 12054, -17094, 2215, -25440, -25559, -16876, 18861, 10657, -13952, -7357, 18771, -8935, 1856, -6870, 9509, -13284, 6577, -5894, -1866, -7513, -3483, 20077, -10927, -24037, -13661, -14633, -6889, 3823, -9581, -20591, 7316, 990, -11330, 15069, 16335, -12806, -15274, -10643, -24728, -16187, -25000, 2181, 22128, 11135, -4850, 17089, 7661, -20304, -27040, 19405, 230, 1099, 12165, -2993, 6053, -9781, 6992, 10212, -10337, -594, 7573, -8106, -751, 497, 8930, -13124, -296, -1858, -5991, -3446, -78, 2029, -7522, -5973, 6984, -1713, 3291, 11124, -2448, 293, 7341, -1096, -4961, 5470, -5745, 1165, 8630, -5474, 624, -1306, 6869, -6977, -9835, -3397, -3772, -6385, -13399, -2758, 7490, 15051, -7673, 22111, -383, -11275, -6271, 2496, -1411, -7948, 9948, 3703, -79, -4249, -3626, 11912, 15398, -10754, -4922, 1712, -3330, -7783, -6461, -9940, -13321, 2491, -3940, -3901, -4035, 2197, -857, -6296, 6498, -10267, -8912, 3430, -1907, -6954, -4024, 3545, -1029, -9780, 17687, -1094, -7953, 5234, -4355, 14816, 6534, 16404, 17813, 1031, -6965, 3003, 3237, 536, 17272, -4841, 10364, 6302, 4002, 14541, 12032, -5712, 3597, 9674, -12644, 5389, 5074, 3446, -10464, 14079, -1465, -6903, 12981, 34, -10993, 6850, -2629, -12787, 14041, 6359, -10069, -1308, 23986, -17690, 24292, -22105, -5705, 11804, 12779, -22033, 19779, 7294, 13478, -6438, -610, -18688, -14043, -17223, 17466, 3658, -13381, -2878, 13066, -9840, -1722, -590, -684, -10018, 12560, -5331, 51, -9347, -3076, 24456, -16933, -19888, -13064, -16071, -7789, -941, 1169, -8812, 9580, -5554, -10059, 13085, 13197, -13060, -17791, -5650, 2279, -20998, -17891, -5033, 19650, 9497, -3119, 17023, 11700, -15404, -26350, 16503, -223, -230, 743, -4272, 4107, -7336, 11511, 1672, -7180, 5260, 4497, -11526, -7366, 10084, 2759, -5156, -2065, -3002, -597, -3522, -5294, 9876, -12539, -3457, 7193, -1029, 7855, 18956, 12111, -4734, 9204, 2988, 2882, -3541, -4253, 2396, 1751, -8126, -8548, -6271, 11640, -4769, -11309, -7600, -7470, -12903, -5088, 2499, 5501, 15429, -6800, 13150, -1210, -11551, -6595, 2664, 7207, -4865, 10278, -7816, -7265, -10227, -2988, 10578, 19612, -10561, 6714, 8411, -9090, -8482, -5976, -10809, -13730, 1557, -9116, -3040, -6552, 1143, -6130, -7357, -527, -11002, -3197, -1667, -4336, 201, 1495, 2931, -2326, -9060, 17581, 11, -1010, 4503, -175, 4029, 8418, 15673, 8280, -7025, -8876, -7534, -3919, -1143, 4358, -5129, 6560, 919, 3870, 7829, 13007, -10463, 543, 7265, -5091, 2352, -3228, 4939, -9168, 15359, -203, -4729, 15386, -6681, -10313, -141, -5976, -3759, 5460, 3785, 4697, -14954, 14389, -9074, 13637, -21538, -7482, 14530, 16432, -22532, 16227, 8458, 17508, -13651, 6565, -18701, -18711, -14629, 621, 7537, -13593, -8794, 3889, -5623, -1266, 2826, 15990, -12038, 16774, 4481, -11551, -3410, -9978, 19351, -8852, -14568, -8010, -11382, -2328, 2458, -4187, -19429, -6945, -1476, 6494, 12127, 13392, -10497, -17769, -7036, -1331, -14355, -13770, -6201, 22888, 8016, -1667, 11360, 6078, -5944, -17254, 15882, 313, -14813, 14324, -13380, 1474, -7213, 14259, 5783, -6805, 330, 7412, -1462, -1165, 7140, 10675, -5806, 3577, -6847, -10845, 2165, -8388, 5385, -11817, -10480, -1022, 1083, 11387, 15480, 12863, -7879, 13275, 7699, -872, -2762, -1953, 2495, 13330, -10558, -7228, -9311, 2494, -3083, -9328, -13886, -12617, -14141, -3448, -3192, 3035, 14288, -5169, 17362, -9123, -8483, -3680, -843, 4300, -4716, 9051, 1143, 910, -11111, -1298, 13523, 10353, -14792, 17451, 12186, -196, -5655, -7689, -9140, -15610, -9058, -2518, -2581, -1067, 691, -10750, -10570, 651, -8784, -8827, 1003, 2947, -9974, -7360, -5179, 5801, -12341, 15956, 3022, -11893, 6671, -14697, 13978, 6914, 18198, 11498, -5770, -12624, -1331, -3887, -5906, 18947, -12953, 7050, 130, 5201, 11842, 8725, -3248, 497, 7227, -9080, 14334, -140, 4969, -9902, 10277, -9646, -13110, 12812, -4113, -10816, -5128, -7159, -9941, 16252, 12849, -7471, -8424, 11298, -14148, 17846, -12576, -4142, 9773, 11826, -5683, 9559, -452, 16904, -11557, -5558, -12124, -11234, -9493, 1330, 20825, -8163, -1986, 3181, -3515, -6167, -3873, 20643, -13145, 4372, -8518, -15217, -13413, -13122, 11475, -12316, -12202, -13526, -8498, -3550, 2538, -14302, -14457, -14252, -11388, -747, 9223, 12231, -17280, -6868, -10565, -13103, -11617, -7244, -14495, 12289, 3367, -6792, 6721, 6496, -16242, -16189, 16487, -3435, -7865, 24141, -4323, -7808, -979, 11233, 10941, -5387, 5608, 5170, -5275, -8818, 6812, 4827, -11759, 3490, -5336, -4225, -5373, -4374, 8968, -4599, -660, 3950, 5743, 12653, 6938, -619, 2733, 3443, -2908, 4834, 639, 8371, 1659, 18594, -297, -4118, -968, 5761, 639, -9269, 1637, -11269, -9758, -11676, -8311, -882, 12235, -1813, 8029, -4236, 838, -11758, 837, 1059, -13048, 7902, -5852, -7604, -10373, 626, 2493, 7735, -5337, 6087, 11513, -814, -6962, -10821, -13882, -9078, -1437, -12222, -3889, -6855, -1656, -6989, -10020, 3828, -2646, 195, 5389, 1228, -14517, -5412, -2974, -4022, -9616, 7254, 9440, -15359, 7146, -14846, -4217, 1704, 6844, 5012, -1846, -7099, -7615, -204, -802, 12316, -8835, 2317, 3023, 5817, 4618, 6767, -3465, -7921, 11106, -8901, 1632, 1407, -87, 1552, 8036, 2502, 912, 14710, -8930, 1954, -607, -7411, -12088, 12822, 8079, -12829, -1934, 20735, -17655, 8479, -12239, -1693, 6763, 10586, -16342, 21026, 11604, 9470, -4054, 5086, -13388, -8948, -11662, -3116, 19191, -2755, -8084, -347, -11382, -5011, -1, 19081, -14112, 6027, -10782, -7094, -8773, -4294, 17664, -10330, -15793, -7811, -11921, -4222, 4628, -20522, -14641, -10868, -2411, -10479, 12516, 12117, -10804, -13013, -8752, -17050, -8337, -14779, -11916, 20367, 15731, -2594, 16664, 10113, -26028, -18057, 20782, -7432, -1464, 16802, -8264, -2437, -12778, 4531, 14797, -5339, 6633, 838, -4019, -3115, 7159, -471, -4097, 3702, -12758, -9404, -8540, -2655, 8051, -4442, -6465, -2984, -3586, 6112, 12158, 6753, 1279, 13312, 10268, 8908, 11524, 3199, -2433, 15918, -3049, -3017, -10126, 5449, -9871, -3347, 411, -435, 4589, -7409, -7467, 3323, 19262, -11344, 21661, -8276, 3553, -9858, 5078, -3246, -2979, 11518, -6505, -7565, -4797, 1861, 10641, 19828, -209, 227, 1890, 4990, -11571, -9584, -1727, -13436, 2305, -10066, -10347, 2783, -2101, -8619, -5155, 7671, -2386, -8736, 1435, -5308, -9800, -7761, 1608, -73, -8154, 11777, 649, -7213, -3176, -4283, 6398, 4102, 336, 8384, -2092, -7063, -6518, 1880, -6668, 9823, -3084, 9100, 3667, -235, 8429, 4752, 2355, 278, 7797, -4331, 12996, -886, -3559, -5098, 8696, 2397, -6335, 15600, -3219, -3427, 3513, -5755, -12597, 8492, 8823, -7857}
#define LINEAR_1_BIAS {-4507, 2775, -11125, -10164, -2214, 1525, 10636, -10693, -7930, 4090, 15037, -11922, -11274, 8352, -9206, -9598, 3098, -88, -11175, 12576, 6292, 10785, -11866, -12243, 15746, -7943, 3514, -4824, 7422, 6141, 9144, 7477, 3350, 5361, -9170, 6334, 7183, -13642, 17207, -4025, 1300, -7155, -7642, -8464, 3636, 10657, 4949, -11313, 1117, -2519, 2057, -10683, 8781, 4789, 4540, -14035, 774, 17664, -2577, 1901, -11409, -8640, -7752, -9669}
#define LINEAR_2_WT {-82, -2909, 2650, -864, -231, 2635, -8134, 1798, 6575, -1018, 3127, 2895, -967, 4095, 3712, -348, 831, 8346, -9274, 9702, -3898, -5530, 4797, -7093, -5689, 11466, -5842, -713, 8179, -1978, -2357, 3204, -4235, -7593, 2786, -6820, 3451, 9713, -2626, 8040, 11438, -6474, 9215, -2094, -5357, 2491, -3572, 2242, 6328, -4719, 15, 2848, -5720, -3973, -6015, -4552, 2658, 2143, -3371, 7722, -2684, 6149, 10233, 4213, -1591, -8750, -2454, -4027, 3662, 5865, -2474, 6532, 10249, -5335, 4812, 2097, -8415, 6033, 1904, 2317, -4455, 1702, -224, -4264, 5036, -945, 2352, 5689, -1110, -4180, 1885, -8061, 1625, -3811, -6944, 2090, 1488, 3522, -3112, 3618, -2775, 938, 2640, -2420, 1270, 4702, -2354, -310, 3639, 1290, -1131, -1238, 5417, -5047, 0, 1391, -5072, -3861, -6534, -712, 1111, 3132, -2633, 8115, -3601, 4915, 6834, 4640, -4497, -4839, 306, -6178, 6533, 9935, 915, 7849, 8420, -7956, 8635, -6224, -4184, 1129, -4027, -491, 1720, 6368, -12727, 3329, 1025, -3001, 3509, -3295, -2603, 5015, -256, -267, 4825, -1784, -1384, 1071, 4632, 2613, -82, 5536, -4314, -597, 866, -2640, -221, 7994, -3654, 2013, 3143, 75, -378, -2136, 6866, -6777, 0, 3663, -3558, -4668, -7425, -3336, 1650, 4898, -5064, 9705, -3662, 5689, 9085, 4857, -2588, -8406, 816, -5790, 963, 7244, -2381, 7295, 8227, -4996, 6896, -660, -8326, 6592, 669, 2237, 1512, 1907, 2449, 1549, -5566, 2544, 1117, -924, 1535, 2183, 815, 2916, -599, 786, 741, -1752, -5152, -5870, 1759, -7431, 4807, 8222, 1470, 8680, 7563, -8507, 9304, -6170, -5019, 15, -5586, 676, -5618, -10171, 1921, -7886, 5739, 15022, -1824, 7460, 15026, -10621, 11180, -6199, -9041, 6114, -5274, -65, -1091, 578, -1475, -84, 2291, 3193, 372, 1340, 6215, 306, 1891, 727, -761, 1613, 950, -7519, 3407, 1312, -4963, 716, -1990, 4135, 1164, -2565, 1311, 2194, 3780, 2541, 629, 3338, 1567, -626, 6710, -5086, -8, 2835, -3219, -4537, -5903, -4615, 590, 3935, -3649, 9274, -6387, 8328, 8702, 5365, 513, 672, -10414, 139, 3788, 2073, 2740, -449, 1661, 2097, 2303, 859, 888, 307, -236, -2223, 1529, 501, -3102, 1573, 1596, 3673, 1934, -152, 2112, 205, 2933, 1152, 585, 2014, 985, -5643, 3929, 3994, -1222, 6046, -3458, -1352, 2242, -4055, 54, 4983, -2543, 1190, 2812, 487, 703, -2991, -659, -8014, 0, -2885, 2321, 5848, -3641, 3369, 10066, -5723, 4969, 2676, -5710, 6637, 4164, 2286, -10338, 8734, 7923, -4965, 1611, -5197, 4391, 6716, -10639, -4847, -2443, -14703, 5394, -12834, -12444, 0, 8261, -867, 385, 12771, -1470, -7168, 274, -8620, -600, 12862, -10473, 5220, 2003, 485, 1798, -2618, 6714, -5781, -1857, 4887, -6104, -3571, -6670, -4592, 3762, 1280, -1887, 9659, -4731, 7042, 8661, 4052, 1360, -1538, 900, -578, -2330, 2598, -5069, 379, 6690, 170, 2243, 3620, -1768, 4659, 2684, -11, 6122, -5074, 2671, 5616, -5839, -6542, -5537, -5098, 2666, 2888, -2238, 6110, -5303, 6128, 8824, 5191, 881, -1986, 3660, 1045, -5589, 844, -4251, -546, 2514, 2649, 343, 2659, -336, 2101, 3390, -2040, 2712, -1165, 2550, 1313, -7844, 3305, -6526, 806, 3771, 484, 717, 1503, -1673, 2875, 4678, 158, 1366, -926, 3143, 685, -7667, 4524, -4042, 1108, 3008, 1968, 810, 597, 25, 3403, 1995, -584, 666, 654, 3355, -172, -6405, 3167, -5595, 1553, 3188, 1548, 526, 2001, -376, 2775, 2835, -4, 2930, 6657, -9123, 8948, -4784, -4862, 2031, -10368, -5286, 10018, -5682, -1763, 6440, -411, -2390, 2087, 1082, -6748, -6584, -217, 3244, 4814, -3733, 3878, 8940, -3214, 3120, 6445, -6220, 7160, 8054, 2990, -7526, -10372, 3893, -9583, 9751, 16487, -3070, 11278, 16982, -12244, 14219, -6599, -8419, 6467, -8056, -5802, -532, 1114, -3795, 377, 3177, 3951, 621, 1334, 3161, 1623, 1171, -363, 354, 734, 1133, -8629, 920, 1663, -6929, 971, 4505, 2733, 1918, 822, 3010, -103, 3637, -1399, 317, 1172, 1007, -5643, -10363, 4342, 10298, -5899, 2727, -1780, 5536, 6417, -5424, -6903, 1410, -14458, 3334, -12491, -17111, 0, 1530, 2445, -11249, 2894, 3133, 724, 3189, -33, 540, 2600, 922, 985, 971, 46, 860, -1336, 1341, -2162, 4379, -1022, -1587, 3720, -8806, 52, 3792, -1002, 2941, 1467, -1054, 6777, 5860, -96, 308, -2593, 59, 719, 128, 6585, -7544, 2115, 9571, -1099, 4766, 2628, -1518, 6302, 5392, -28, 475, -5184, 2330, 35, -1200, 4372, -7965, 896, 7955, -716, 3219, 3666, -599, 8373, 4224, -2213, 548, -3451, 4343, 170, -2323, 3497, -7824, 346, 6339, -1424, 1292, 2033, -744, 5490, 5000, -1531, 756, -4653, 3329, -34, -161, 4232, -9649, 1085, 5606, -1779, 2406, 2772, -1544, 7267, 6511, -1238, 1855, 3494, -9991, 3263, 675, -1486, 3011, -4260, -3239, 3929, 907, -2313, 6459, -2259, -1347, 592, 2544, 4345, -3703, 8075, -4273, -2790, 2429, -6724, -1231, 13029, -5829, 1392, 3056, -292, -1194, 1087, 6361, 4907, 1969, 11108, -4329, -8693, -2771, -10151, -3635, 13112, -9221, 2449, 4223, -1229, 1042, -117, -3753, -7780, 2784, -5654, 5051, 8272, -1279, 7429, 10074, -8947, 7748, -1841, -7609, 1988, -876, 2233, 6696, 6167, 1970, 14442, -4703, -6997, -739, -9307, -4225, 11687, -8488, 372, 4008, -2388, -1039, -22, -18, -1820, 1316, -851, 47, 7981, -10375, 1465, 8491, -1306, 5906, 3622, -2881, 8939, 4686, -143, 461, -1940, -1066, -912, 1862, 4803, -5589, 1791, 8343, -616, 1643, 2706, -1409, 4860, 4094, -5029, -4804, -7717, 4315, -7524, 5726, 8486, -1438, 8744, 11629, -8123, 8033, -4056, -6172, 3498, -3514, 1151, 114, 976, 2724, 1100, -6311, 3531, -3987, -174, 1757, 1000, 2989, 2288, -823, 1905, 2470, -823, 3830, 8542, -5664, 8977, -1885, -5334, 4274, -8763, -5192, 12649, -5066, -725, 5656, -1944, -1081, 3404, 234, 3205, -10578, 3324, 3660, -2221, 1676, -1685, -1358, 3311, 1017, -1440, 4847, -2103, -2451, 715, -10411, 5283, 10093, -5346, 2383, -3295, 6411, 8597, -5064, -4190, 2181, -17204, 4990, -12848, -16576, 0, 1232, 6372, -11941, 6804, -2446, -4385, 4006, -7063, -4597, 5450, -3650, -766, 7021, -2214, -1920, 2976, 1439, 1195, -11124, 1949, 3750, 434, 2924, -2730, 1229, 4261, -733, -494, 1440, 557, 298, -471, -568, -4577, 1093, -418, 201, 6601, -11742, 1872, 12011, -2904, 5205, 2777, -1061, 10617, 4292, -3422, -947, -2640, -6777, -3838, 5961, 5288, 802, 3992, 9567, -3841, 5891, 3153, -3924, 4881, 2805, -5810, 5413, -6474, 0, 2846, -5089, -1843, -4519, -2619, 4225, 3635, -150, 8533, -4962, 6648, 10687, 5030, -5245, 9315, 5149, 3195, -256, -9856, 6821, -1088, -10466, 2944, -7370, -7831, 11173, -10757, -10240, 0, 419, -3329, 4373, -957, -2539, 3683, -8992, 568, 6447, -1389, 774, 1650, 562, 6126, 5316, -1158, 5791, -4987, -1372, 4398, -5479, -4917, -5984, -4486, 1752, 3634, -1123, 10341, -5369, 6619, 8122, 5074}
#define LINEAR_2_BIAS {9977, 14423, -18373, 18327, 10359, 5106, 7156, -10207, 1325, 22871, -6287, 3529, 10411, -4833, 9995, -21454}
#define LINEAR_3_WT {-19320, 2282, -16099, 7161, -20804, 9231, -16467, 422, 6307, 14488, -3735, -18633, -21172, 5358, -15782, 4190, 12924, -2740, -8618, -14881, 5217, -15247, -14122, -291, -3398, 17537, -13709, -18395, 18372, -6360, -8534, -18394, 8036, -7978, -14439, 4877, -18925, 4650, -15151, 3225, 8355, -17015, -10357, -1928, -1691, -10207, -10593, 13351, -23742, 6884, -18175, -2497, 7804, -18795, -12612, 7735, 3819, -12745, -11616, 9646, -4702, -10128, -23, 10695}
#define LINEAR_3_BIAS {-9525, 6646, -30154, 1624}
