#define LINEAR_1_WT {-10728, 13571, 7054, 1260, -9685, 5793, 4026, -9947, -7374, 4262, -8312, 3555, 11505, 11188, 1127, -8262, -4779, 132, 2389, -1409, -6264, 11210, -9603, 1362, 280, 9780, 10273, -2088, 1467, -7650, 12001, 11197, -159, -6992, -6966, -3036, -12378, 13463, 12452, -4724, -2441, 5604, 129, 3179, 4269, -6866, 11151, 4700, 9160, 3251, 12501, 4011, -4499, -6749, 18117, -3300, 9681, -7294, -2755, -1542, -8225, -4395, -7345, -10479, -4504, -8983, -12815, 2088, 4514, -15564, -19977, 9422, -9119, -7281, -11736, 9997, -2650, -4406, -8743, -4821, -4622, -3355, -8187, -9749, -2814, 14774, -17716, -17781, -6055, 4084, 4536, -2736, 6068, -16467, 5159, -8050, -10542, 6722, -2578, 12752, 1988, 3036, 11803, -9702, -2982, -14775, -15292, 4095, -1766, -9689, 9610, 4844, -6855, -11176, -9319, 10838, 15704, -11150, -7185, 312, 12784, -13071, -9913, -1149, -1414, 3661, 3299, 601, 7047, -7849, -3103, -12625, -6424, -3098, -4201, 14605, 7718, -6975, -9070, 14528, -931, -19, -4285, -5398, -4804, 1535, -12908, 8935, 12589, -1911, 4169, -799, 1271, 105, 8032, -879, 8182, 11812, 16104, -825, 7256, 4150, 11044, -12729, -1947, -3391, 12617, 4182, 5491, -9779, 5723, 2846, 4200, -7565, 795, -10535, -3050, -1321, -2706, 14729, -3123, -4014, 12667, -759, -4117, 13045, -10494, -7607, -11726, 10795, 12054, -2183, 8684, 2336, -2565, 1548, 10806, 7407, 7124, 11015, -8001, 5514, 1000, 3378, 9082, 4599, -4825, -7786, 2713, 469, -9318, -7036, 12794, -5702, 9191, 12433, 905, -2509, -864, 885, -10421, 8551, 12804, 1377, -970, 10485, 2650, 2436, 6379, 3179, 1288, -3612, 666, 5573, -9385, 9673, 14050, 13684, -13039, -2256, -338, 8183, -7856, 11179, -5709, 1417, 1048, -10906, 14107, 9400, 9473, -13299, 5658, 6701, 6867, -12444, 9640, -2754, -4943, -8596, -10034, -14917, -19746, 2601, -8507, -6228, -5641, 10597, -3483, 16380, 600, 12197, -19442, -123, -6668, -8926, 3942, 6075, 1316, -11868, -6325, -11726, -11755, 5324, -4035, -17548, 2382, -2622, -377, 12152, -1684, -4899, -12801, 7877, 11574, -21636, 742, -11893, -17289, -2419, -12142, 5667, 2062, 9151, 13726, -12856, -11854, 10213, 1372, -13438, -735, -12250, 2232, -10687, -6629, -5824, -4956, -9501, -12414, 3636, -8195, -9578, 5384, 2866, 7280, -14032, -7445, -6968, -9563, -4362, 11282, 14775, -9473, 8953, -4217, 8766, -3198, 211, 1271, -12037, 10902, -7892, -12710, -823, 11735, 2813, -5913, 13175, 9188, 983, -11457, 8974, -4508, -1472, 4567, -9448, -1061, 11480, 4481, -11305, 7771, 4968, 10555, 816, -7427, -10200, -1489, 13242, -9215, 1643, 3097, 13036, -471, -2444, -8548, 13901, 1630, 2528, 10260, -8271, -4674, 12010, -8536, -3103, 16605, 6844, -958, 887, 4050, 9592, 872, 4898, -1817, -1803, 2492, -1309, -7423, -5392, 15704, 13747, 3146, -428, -1590, 4534, 10991, 17171, 1545, -14276, 4819, 2794, -252, 2596, 103, -6698, -585, -12166, -7304, 7389, 3621, 13786, 12192, 14482, -10366, -14234, 5403, -2964, -14772, 9268, 1487, -8937, -2372, -621, 9304, -4422, -10020, 7062, -3395, 306, 7247, -13282, 6444, -734, -2203, 2233, 9219, 4367, 195, 5813, 2603, -5896, -6110, -11881, 3452, -3358, -744, -4242, 7774, -6320, -7966, 3712, -10613, -1635, 2469, 3491, -14560, -688, 4462, -18643, -6334, 2206, -6962, -4304, -18013, -1293, -9012, 11938, -9927, -7179, -7944, 668, 8820, 9551, 359, 11855, -12881, 2609, -4232, -14073, -8092, -4939, -17364, -11437, -2152, -6546, 11992, -8922, 8462, -15579, -15488, 9444, -7576, -8820, 4441, 2568, 3019, -5758, -11570, -8112, 7892, -6247, 8068, 3320, -10493, 11238, -5138, -1007, -8472, -7176, 1968, 6437, -10125, -10475, -4865, -6215, -13491, 15927, 4264, -10697, -8238, -110, 1419, -4791, 5161, 8924, -5723, -14533, -6666, 3064, -7285, -265, 9798, -8679, 9419, -12914, 13676, -3155, -9200, 11203, 8302, -3387, 4754, -4504, 11054, -9144, 3359, 6093, -1951, 11565, -752, -1847, 3345, -9812, 2305, -8603, -5426, -2737, 4963, -841, 808, 7097, -7495, 8093, -2919, -258, 13919, 6107, 14114, 6272, 3480, 10806, -7636, -3285, -10660, 190, 100, 10242, 6585, 3901, -9473, -10387, 4025, 5024, -3679, 3489, 5727, -4254, -8984, -9530, -6803, 9283, -11297, 3369, -12179, 5712, -6385, 1291, -1719, 3441, 3566, 4196, 1149, 8156, 462, 5742, -7227, -8723, 6263, 3257, -14344, 5871, -1376, -4114, 6217, 8673, 14848, -11469, -6043, 2495, -10155, 7227, 7239, 5393, 1775, 10869, -3530, -1121, 10863, 169, -792, 3281, 9724, -7180, -16660, -11092, -7256, -14061, -5926, 8265, 5840, -10045, -9416, 4812, -6780, 1943, 684, 8703, 1686, 1011, -6243, -10852, 2865, -5813, -10560, -17860, -14260, -20553, -22763, 4234, 1390, -6817, 7926, -2395, 2324, -1613, 17382, 10284, 6820, 13960, 4583, 3258, 11860, 415, -13753, -17465, 8813, 1182, -11075, -3162, 12110, -18902, -8863, 1178, 9469, -10418, 3786, -19964, -8423, -6201, -13316, -19797, 7061, -8954, -1417, 4308, -8767, -3249, 2934, 8816, 3763, -734, 7311, 13033, -1785, 12893, -9997, 2180, -11291, 728, -317, 8496, 1510, 131, 7093, 2330, 2067, 1425, 850, 9804, -1255, -6630, 11172, 8428, -4139, -8725, 8937, -277, 5714, 103, -6655, -8442, -10852, 8697, -7237, -2336, 8497, 7676, -5656, -9671, -4270, -8116, 7149, -4249, 6196, 10641, 192, -7286, 10945, -2179, 5741, 13042, 7657, -5475, -430, -1096, -398, -5119, 10400, 9311, -15, 3712, -11788, -2502, 3293, 6542, 610, 3611, -2240, 10189, -11896, 7459, 10486, -10543, -14961, 7704, -4056, 197, 1028, -7290, 8628, 11112, 10399, -12678, 7680, -10352, -3165, -9244, 9342, -12216, -3654, -857, -6023, 4230, -5228, 9654, 4380, -3266, 2913, -14082, -5196, -13754, 3589, -10747, -4145, -8453, 8993, 13353, 8631, 3342, -14219, 7977, -315, -13420, -12894, -7835, 648, -5987, 261, 8586, 12907, -14744, -6367, -3631, -7745, -13720, -7516, -17624, 387, 6169, -6372, -276, -1815, -12370, -14396, 1950, -14010, 6203, 12372, 972, -13954, 94, -13222, 3164, 3950, 11332, -14844, -20165, -3661, 1656, -9579, 11403, 13062, -20104, -12449, -17269, -4606, -2393, 7176, 7360, -1988, 5525, -1943, -18371, -3741, 1530, -4030, -9375, 6882, -17172, 9984, 6822, -9856, -17386, -17124, -8018, 4109, 4899, -4935, -19284, 6951, -17450, -14804, 4151, 3918, -740, 9496, -4402, 12350, -9842, 9049, -2058, -11018, -5356, 2001, -7186, 7587, 11955, 1921, 9972, 6600, 2719, -2017, 441, 6626, -102, -11406, 8033, -3687, -8654, 4995, 5911, -4009, 8758, 7627, 7619, -12838, -6107, -2687, 3517, 7397, -1024, 9442, -7452, 12710, 5771, 12560, 7287, 14505, 8180, -9760, -5509, 3120, 3326, 2387, -65, 4422, -6884, -13003, -8550, 11877, 5458, -10215, -5683, -2425, -3851, 883, -12033, -10353, -6703, 2739, -2441, 8275, 4023, 8084, 4342, 3221, 2125, -1484, 4279, 9789, -2653, 10719, -8131, 171, -2515, -7767, -9172, 5394, -140, -11239, 13082, 8349, -5137, -12961, -4688, 7998, -589, -13858, 13964, 13193, -7139, 770, -2906, 3728, -6006, 13269, -12537, 6321, -3025, 14870, 597, -2489, 4074, -7734, -1970, 13856, -6982, -11266, 4456, 9553, 3457, -3261, -10529, -8784, 9629, -11775, -14032, 2191, 7022, 4663, 4457, -5130, -137, 14774, -14569, -5510, 3018, -7790, 7632, -10868, 3177, -17106, 6493, -10171, 167, -14527, 3831, -1209, -3643, 9689, -2617, -19611, -4286, -573, -3620, 11082, -1806, -3258, -6419, -15292, -11609, -2059, 5138, 5192, 5058, 3886, -19024, 7574, -3244, 6534, 72, -1949, 14501, 2683, -5052, 8940, -11521, -11411, -9598, 9293, -1405, 7675, 9820, -4902, -18527, -13167, 11015, 3771, -18254, -7404, -21529, 2963, -7579, -2756, -7791, 9239, -12438, 4669, -724, -5253, 4692, 8044, 12001, -4666, 11586, 5744, 3956, -8672, -5934, -6901, 12857, 12024, 3960, -2085, -2928, 6674, -112, 2312, 13878, 16186, -1057, -14359, 7933, -2508, 10174, -451, 14186, -4567, -3084, 15490, 7866, -3779, 8917, 7609, -10798, 14063, -5961, 16421, -13391, -1380, -1796, -8783, 11398, -2592, 5843, -12132, 14998, -5624, -8744, 8573, 3710, -6728, -7801, 4562, 4625, 10019, -7083, -9239, 9985, -6557, 916, -7628, -1952, 5345, 8235, 7711, 3655, 3290, 13333, -6894, 4059, 11111, -4620, -7813, 1887, 6169, 12521, -2360, -7789, 10800, -116, 6662, 11212, 9573, 4549, -9224, -6980, -7634, -7535, -9867, -1404, -10115, 6379, 11361, 3467, 2882, 13110, 158, -12593, 2157, -1409, 4276, -5955, 3012, 3620, -8181, -7921, -2752, 545, 8098, 13233, 3349, 8974, 7442, -9934, 3663, -8678, 8279, -7653, 12947, -3265, 2879, 923, 12395, 12509, 4391, -3276, 36, 7355, -13403, -10491, -6901, -7046, 1312, -10455, -102, -13597, 218, -2989, -5664, 5328, -12104, -3511, -14133, 2029, 5707, -7007, 14171, 4926, -10274, -1038, -7764, -6976, -13980, 1690, -2304, -12889, 2113, 1051, -5302, 10006, -8762, -10543, -11820, 2114, -11686, 4137, 9010, -18214, -13534, -15288, 9970, -7776, -6963, 5756, -3911, -10386, -15078, 5693, 10620, -17282, -15317, -1395, 2997, 5477, -2407, -7407, 6101, -6881, 1472, 12926, -1707, -3957, -3374, 13203, 4148, 6313, -6751, -1593, -6238, -10247, 5151, -765, 4487, 9901, 12777, -8308, -9313, -2587, 13721, 7949, 10571, -1864, -11953, -7055, 6223, -5438, -13193, 2943, -11698, 2889, 15802, 3603, 9453, -6222, 876, -7102, -7085, 8974, 9580, -12575, 11029, 7283, -10369, 1877, 4182, -7937, -4826, 2781, -8912, -2409, -8447, 4009, 600, 682, 11079, -7509, -6220, 4354, -6381, -5554, -7590, 11118, 9997, 15141, -3943, 8474, -4170, 11716, 2482, -5719, 6598, 3952, 4304, -509, 9429, 4624, -8613, -4205, 2897, 299, -3604, 117, -1560, 72, 969, 196, -9888, 6153, -4345, -6206, -254, -6901, -3559, 12729, 12987, -7449, 13422, 12419, 1446, -2661, 3726, 9529, -11144, -6718, -949, 1018, -11255, -3298, 11998, 12438, -8045, 793, 13200, 2068, 7752, -7149, 6115, -5426, 10816, 1183, 5943, -8238, 12995, -9920, 16201, 10755, -3269, -4532, 12124, -9808, -12214, -7067, -15286, 4174, -18373, 14875, 10001, -935, -7532, 10560, -7368, 8680, 12060, 8687, 1104, 80, 7915, -7803, 9773, 3429, -3656, 2720, -6701, -13425, -16094, 11702, 11095, -728, 3160, -12899, 9736, 14033, 15630, -10629, 1096, -2568, 11535, -10722, -118, 661, -19726, -20285, 6782, -15464, -6753, -557, 9383, -3217, -6005, -284, 3462, 3381, -10719, -13805, 11829, -7780, -6081, -10503, -4088, -16598, 7931, 10962, -4352, 4391, -11721, -1128, -9812, 5498, -12591, 9707, 1642, 7110, -802, -1097, -5763, 4748, 6419, 3363, -7979, -98, 8337, 6025, 259, 10936, 2895, 136, 7149, 3883, 1695, 4359, -387, -2336, 13889, -9492, -5233, -9064, 13502, 14658, -1433, 17145, 13516, -12894, 10955, -1845, 168, -9372, 7409, -3657, 6204, 8097, 5410, -7481, -11456, 1920, 12136, -5711, 873, 6066, 10487, -520, -9022, 4160, 15747, -12564, 9810, 7650}
#define LINEAR_1_BIAS {8695, 13706, -3749, -7609, 11629, 10007, 2189, 11875, -8138, -5220, -4155, -11267, 10575, 11457, 6704, 9965, -4761, -4211, -5725, 9314, 16159, 14462, 2302, -3524, 607, -4286, -4922, 20640, -2428, 1452, -2528, -4373, -8342, -10997, 14802, 3680, -10327, 20064, 3457, 4819, 9359, 12026, 7852, -5048, 11452, 20039, -5114, 9812, 8492, 678, 7619, 18491, 18205, -322, 11703, -5535, 13970, 11665, 11933, 1143, 8518, 2466, 9261, -3237}
#define LINEAR_2_WT {9068, -11830, 1788, -1034, -1772, -1178, -10080, -11610, -2601, 3633, -11853, 2627, 10122, 11113, 56, -7770, 5972, 6567, 2670, -326, 5652, -1613, -609, 8144, -6151, 9544, 6024, -1660, -2825, 12103, -4475, 5217, -1453, 986, -566, -10309, -807, 2234, 1247, 10802, 4460, 2589, 31, 11731, 1771, -9865, 6005, 5528, -283, 9548, 3772, -3033, 12113, 6464, 1220, -895, 5109, 10, 7331, 8771, -4314, -8000, 3137, 2037, -2947, 7224, -6795, 7896, 5174, 10208, -6505, 1340, 2310, 4284, 8305, 6128, 10950, 1922, -735, 5946, -1994, 8625, -50, 3169, -3135, 3506, 2623, 8734, -5892, 8185, 4361, -4352, 3715, 1120, -5320, 4886, 1505, 11036, -3201, -6368, 521, 14064, -682, 7109, 1979, -6408, -2970, 5021, -7352, -1103, -3252, -1069, 279, -13530, 4981, 4515, -2565, -9772, -155, -11569, -8482, -5439, -6173, -1863, 15323, 3854, -317, -2145, -1, -6971, 5147, -3705, 2132, -5667, 0, 5082, -802, 2914, -3450, -4131, 6589, -6627, 0, -1745, -1635, 13266, 232, -9850, 3547, 1255, 3419, 10664, -2307, -2488, -1421, 4494, 1211, -10503, 7258, 5588, -4307, 1685, -409, -8292, 6375, 12616, -5035, 12253, -751, -2145, 789, 549, 2528, -11841, -6131, 8721, -5361, 6294, 0, 5355, -1659, 2503, 6751, 3010, -5921, -3025, -2072, -3282, 6215, 1534, 2422, -6621, -1976, 4927, -5039, 1899, -5684, 6368, -1550, 11509, -1275, -1787, 10460, -3439, 9353, -1635, -7299, 17, 2070, -7777, -4724, 12847, 2759, -9631, -3162, -10049, 3234, -1764, -4536, -1291, 6897, 10498, 2536, 5590, 13055, -4267, -901, 7041, -8668, -9651, 7550, -2237, -4649, 748, 1113, -1857, 12020, 14344, -2960, 8627, 5735, -6302, -126, 15289, -10366, -9607, -1475, -1055, -2943, 3866, -1424, -11272, 6651, 5325, -1379, -1308, -7432, 7170, 6574, -12143, 5179, 8104, 6644, 16367, 1166, -5630, 7528, 8476, -8633, -11434, -3798, -1016, -65, 131, 0, -56, 121, 154, 0, 123, 46, -22, 100, 130, -69, -77, 0, 48, -6816, -1502, -183, -7475, 962, 9431, -3472, 9292, 5368, 1362, 3050, 7776, -1929, -4833, -21, 885, 3291, 8113, 1463, 8856, 3135, 11881, -3016, 8437, 7735, 3532, -175, -92, 1574, 2819, 4213, 2538, 3713, -12682, -609, 10693, -256, -5850, -2133, -903, 1881, 1497, -8000, -5552, 15754, 15571, -23, 1224, 16473, -11581, -1247, 17163, -4080, -1454, 1369, -2511, -5205, -983, -5922, -11461, 13813, 9550, -4803, -8334, -3028, 11799, 4455, 1932, 7547, 5826, -1003, 2536, -655, 6928, 196, -2050, -7817, -4368, 3118, -361, -10119, 3896, 4160, 1896, 8229, 9942, 2423, 12609, -1238, 1447, 6847, 8708, -10547, 2658, -5600, 10772, -1809, 3834, -3893, -5016, 2332, 3430, -6653, 12726, 5706, -2846, 10297, 12683, -2972, 4073, -7151, 785, -3126, 13460, -6195, 2829, 8639, 3842, 611, 4007, -3371, -1416, 6601, 6430, -10830, -2167, -4333, 12192, -4650, 15592, -273, -2195, 9724, 4168, 2314, 16061, 2854, -1453, 8770, 10711, 297, -10109, -2430, -1109, 9497, -6678, -2487, 14657, -8391, -14432, -4707, -2162, -6828, 5217, -6490, -9312, 17511, 17027, -2074, -5084, 7832, -548, 0, -6540, -4441, -3299, 9056, 3854, -5214, -3757, -4662, 1664, -2729, 4795, 4813, -3798, 1662, 13833, -3629, -93, 756, 14367, -876, 2462, 5872, 451, 2601, 11558, 3151, 2285, -7100, 2318, -80, -9698, -264, 5320, -183, -1837, -7068, -3929, 677, -675, -8614, -10123, 5999, 13154, 406, 1290, -5624, 13507, 1770, 2222, -1043, -123, -8627, 15480, -398, 438, 7403, 1530, -7441, -11390, -1476, 9663, 3548, -30, 0, -1254, 3010, 4283, 1811, -6903, -2828, -6652, -321, 4713, -3842, 8215, -7513, -2047, 4223, -912, 0, 4678, -229, -2526, -5253, 2386, 1048, -2656, 0, 0, -3948, 8060, 0, -4900, 7140, -15486, -6543, 9313, -9104, -12626, 5495, -9810, -7943, 3833, 1412, -12832, 10970, 6875, -1413, -5210, 1106, 2068, 1813, 10177, -6646, -9246, -2004, 2469, -3775, 7887, -1863, -7886, 7392, -521, -2841, 3046, -646, 9244, 2720, -1171, -877, -5236, -77, 1206, 8607, -7641, 3806, -661, 4775, -9928, 3805, 353, 2087, -7830, 4160, 11773, -8094, -3624, 2176, -10915, -3851, -4799, 1050, -14920, 13541, 8784, -418, 7752, 7430, -5021, -91, 605, -11309, -10238, 6288, 2528, -9592, -7202, 22, -611, 6949, 10336, -1506, 2864, -5719, 3376, -691, -2774, -2861, 7763, -5006, 2962, 8998, 8210, 2368, 9055, -6412, -9, -4744, 8756, 7064, -1333, -5218, 1110, -5123, 5956, 3588, -3535, 1209, -7163, -6074, -10327, 6732, 12258, -3036, 2632, -1178, 1131, -380, -1652, 6643, 6316, 419, 9211, 1683, 5771, 2085, 6031, 68, 6255, -1278, 4161, -3608, 7634, -3134, -2521, 2828, 12928, -5479, 1916, 3675, -334, 1589, 11855, -1297, 1018, -3890, 1611, 518, 11238, 3603, -2871, 11511, 4153, -7638, 12879, 7994, 3831, 8506, 15847, -8701, -602, 1520, 4352, 10348, -2845, -195, 9294, -13234, -14158, 1756, -1006, -2787, 11187, -11752, -10110, 5822, 9523, 4194, 588, 9, 6195, -3463, 3367, 2417, 501, -7411, 5812, 6206, -3477, 5800, 544, 8326, 9754, -8629, 8424, -3599, 3630, 0, -3398, 1827, -3357, -2259, -3323, -575, 1938, 3526, -3761, -3306, -5751, -38, -4845, 13922, -9528, 151, 15315, 2091, -7710, 1288, -12986, 190, 5617, -7376, -13118, 2229, 1942, -6741, -3496, 5762, -16371, 3880, 1315, -3814, -1175, 2676, -13587, -7975, -2668, -561, -8643, 10227, 14682, -4889, 1362, 2013, 13457, -1171, -8881, 11762, 6885, 218, 14483, 2949, -2935, 13197, 13545, 3550, -8913, 1842, 4816, 4798, 10270, 203, -163, 10131, 8596, -8558, 11599, 4592, -1314, 4826, 1304, -4572, -386, 912, 12399, 12612, -3637, 921, 5418, -9465, -5640, 5963, -4205, 4163, -5258, -7886, -7756, 17812, 8760, -5181, -2679, 5597, -16479, -1445, 10769, -2712, -11816, 5952, -10979, 1564, 5598, -10180, -5020, 14821, 2423, -6371, -6727, -5771, 11327, -3335, -6048, 10804, 4805, -8029, 6139, 1140, 3902, 7235, 11638, -1229, -5513, -3290, 8855, 2877, 903, -799, 7053, -1686, 11824, -4442, 7902, 2140, -4394, 3343, -4542, 3660, 6056, -4142, 625, -5921, 13688, -1862, -6080, 8992, 14764, 9844, 8404, -1650, -2002, 10013, 8833, -2883, 168, 5735, 1987, 5494, -9815, -3398, 4384, -12094, -7200, -8233, -3987, -4455, 1956, -7073, -11450, 10508, 13976, -3817, 1796, 7282, 4624, 4022, 848, 9832, 5456, -4292, 3981, -3470, -5050, 25, 3956, 1742, 6194, -4480, 8861, 567, 10918, 6707, 3630, -536, 5898, 2147, 13026, 8405, 9487, 7928, 9849, 6337, 9323, -1411, 9035, 5878, 1716, -2956, -3086, 5814, 11713, -7378, 12541, 6674, -697, 11738, 1667, -8214, -5379, -4165, 11549, 5000, -7596, -8, 9220, -2967, -7788, -8012, -14626, -10294, 10133, 1632, -3221, 11512, 1344, 895, -1390, 959, 3688, -6263, 7430, 3112, 11506, -327, 8210, -5236, 1718, 4668, 9173, -4672, 5105, -6224, 9932, 5327, -2027, -430, 261, -3254, 218, 5830, -8552, 6924, -2849, -1798, -9365, 12270, 14376, -2032, 82, 1502, -6278, 0, -4240, -6789, -2735, 7735, 1613, 1867, 4412, 1484, 5309, -1719, 5609, 1665, -7648}
#define LINEAR_2_BIAS {27117, 8756, -16236, 30489, 5028, -5124, 1171, 10372, 12241, -2160, -10812, 10601, 20602, 9503, 10809, 19197}
#define LINEAR_3_WT {-19463, 23456, -4250, -12938, 17262, -13834, -5649, -17455, -8158, -1639, -5444, 14165, -6760, 22633, -12250, 5314, 284, -20286, -7344, -9797, 22593, -3400, -21942, -4819, 6513, -10923, -16776, 16126, 13151, -13400, -16285, -19693, -5187, -14467, 2072, -21133, -3896, 1580, -20120, 7804, 14426, -16214, -4998, -13102, 7475, -23196, -7460, -7423, -21314, 23536, -7963, 819, -22110, 22551, -22933, -61, -14838, -9930, 13550, -10063, 14767, 7261, -6207, -8950}
#define LINEAR_3_BIAS {1614, 15102, -19591, -12069}
