#define LINEAR_1_WT {-8181, -5614, 7442, -2994, 1522, 7036, 2267, -6281, 2907, -2284, -2993, 1712, -1308, -4272, 8411, -14954, -13380, 12186, -8424, -4323, 11513, -1934, -8264, 1890, 15418, -5479, -7225, 11095, 814, 1109, 19617, 1657, -9579, 18300, 6053, -3330, 23986, 4107, -9090, 14389, 1474, -196, 11298, -7808, -814, 20735, -2437, 4990, -16860, -4508, -9579, -10873, -6284, -5185, -11118, -12718, -5251, -19476, -9781, -7783, -17690, -7336, -8482, -9074, -7213, -5655, -14148, -979, -6962, -17655, -12778, -11571, 16305, 6845, -11685, 15786, 8037, -13471, 14089, 9720, -9800, 27568, 6992, -6461, 24292, 11511, -5976, 13637, 14259, -7689, 17846, 11233, -10821, 8479, 4531, -9584, -20301, 1524, -9109, -10842, 8630, -9674, -19186, 2958, -7454, -13137, 10212, -9940, -22105, 1672, -10809, -21538, 5783, -9140, -12576, 10941, -13882, -12239, 14797, -1727, -4554, -14852, -10154, -6376, -3537, -16854, -11087, -3101, -13762, -14336, -10337, -13321, -5705, -7180, -13730, -7482, -6805, -15610, -4142, -5387, -9078, -1693, -5339, -13436, 4632, -1818, -5379, 3724, -1442, 1532, 15136, 1519, -679, 17603, -594, 2491, 11804, 5260, 1557, 14530, 330, -9058, 9773, 5608, -1437, 6763, 6633, 2305, 6798, 11532, -9438, 10607, 4441, -11795, 17980, 5562, -8528, 20307, 7573, -3940, 12779, 4497, -9116, 16432, 7412, -2518, 11826, 5170, -12222, 10586, 838, -10066, -18497, -2530, -805, -12987, -9121, -10015, -22056, -5123, -10171, -26767, -8106, -3901, -22033, -11526, -3040, -22532, -1462, -2581, -5683, -5275, -3889, -16342, -4019, -10347, 19437, -1084, -13700, 5902, -2099, -5772, 13126, -4850, -6592, 17752, -751, -4035, 19779, -7366, -6552, 16227, -1165, -1067, 9559, -8818, -6855, 21026, -3115, 2783, 7159, 3064, -1881, 3464, 9233, 3504, 7196, 4149, -771, 8886, 497, 2197, 7294, 10084, 1143, 8458, 7140, 691, -452, 6812, -1656, 11604, 7159, -2101, 16912, 6778, -11282, 22381, 2456, -11602, 21671, 3467, -7190, 12054, 8930, -857, 13478, 2759, -6130, 17508, 10675, -10750, 16904, 4827, -6989, 9470, -471, -8619, -12525, -7522, -10263, -2033, -12625, -5070, -9813, -2244, -8521, -17094, -13124, -6296, -6438, -5156, -7357, -13651, -5806, -10570, -11557, -11759, -10020, -4054, -4097, -5155, -1324, 9126, 7937, 975, -217, 5689, 3876, 369, 5055, 2215, -296, 6498, -610, -2065, -527, 6565, 3577, 651, -5558, 3490, 3828, 5086, 3702, 7671, -12764, -10218, -9467, -9489, -10767, -193, -15402, -761, -8997, -25440, -1858, -10267, -18688, -3002, -11002, -18701, -6847, -8784, -12124, -5336, -2646, -13388, -12758, -2386, -14697, -7378, -4551, -6735, -8247, -65, -15001, -3504, -9631, -25559, -5991, -8912, -14043, -597, -3197, -18711, -10845, -8827, -11234, -4225, 195, -8948, -9404, -8736, -14587, 301, 504, 367, -4771, 3723, -12735, -7778, -2985, -16876, -3446, 3430, -17223, -3522, -1667, -14629, 2165, 1003, -9493, -5373, 5389, -11662, -8540, 1435, -921, -1029, 6423, 15, 1843, 6858, 7847, 7358, 672, 18861, -78, -1907, 17466, -5294, -4336, 621, -8388, 2947, 1330, -4374, 1228, -3116, -2655, -5308, 13263, 13553, -11637, 13699, 2119, -4321, 16055, 6173, -12972, 10657, 2029, -6954, 3658, 9876, 201, 7537, 5385, -9974, 20825, 8968, -14517, 19191, 8051, -9800, -1987, -5506, -10258, -5698, 730, 1164, -9360, -3907, -3949, -13952, -7522, -4024, -13381, -12539, 1495, -13593, -11817, -7360, -8163, -4599, -5412, -2755, -4442, -7761, 2297, 3421, -1597, -10513, -7364, -1390, -11247, 3525, 6091, -7357, -5973, 3545, -2878, -3457, 2931, -8794, -10480, -5179, -1986, -660, -2974, -8084, -6465, 1608, -170, -3613, -2726, -3084, 5814, 6556, 12588, 6745, -2275, 18771, 6984, -1029, 13066, 7193, -2326, 3889, -1022, 5801, 3181, 3950, -4022, -347, -2984, -73, -382, 971, -11159, -9289, -4660, -14761, -6162, 7881, -14879, -8935, -1713, -9780, -9840, -1029, -9060, -5623, 1083, -12341, -3515, 5743, -9616, -11382, -3586, -8154, -6780, 4084, 14705, 937, 6404, 13226, -7505, 10627, 13504, 1856, 3291, 17687, -1722, 7855, 17581, -1266, 11387, 15956, -6167, 12653, 7254, -5011, 6112, 11777, -4994, 7073, 4496, -9210, 7596, 1385, -5432, 10018, -284, -6870, 11124, -1094, -590, 18956, 11, 2826, 15480, 3022, -3873, 6938, 9440, -1, 12158, 649, 7095, 8216, -2296, 10810, 8010, -9312, 8138, 2398, -4848, 9509, -2448, -7953, -684, 12111, -1010, 15990, 12863, -11893, 20643, -619, -15359, 19081, 6753, -7213, -13571, -3535, 12860, -4084, -4131, 3368, -6905, -3397, 9737, -13284, 293, 5234, -10018, -4734, 4503, -12038, -7879, 6671, -13145, 2733, 7146, -14112, 1279, -3176, 3668, 13881, 208, 19589, 828, -12660, 16707, 4300, -8951, 6577, 7341, -4355, 12560, 9204, -175, 16774, 13275, -14697, 4372, 3443, -14846, 6027, 13312, -4283, -687, 4943, 10365, -1107, -2889, -819, -6159, 84, 9575, -5894, -1096, 14816, -5331, 2988, 4029, 4481, 7699, 13978, -8518, -2908, -4217, -10782, 10268, 6398, -6052, 5470, 15759, -5384, -572, 4369, 4384, -5257, 10912, -1866, -4961, 6534, 51, 2882, 8418, -11551, -872, 6914, -15217, 4834, 1704, -7094, 8908, 4102, 1143, 4704, 14887, -8090, -1672, 2862, -4813, 6322, 17193, -7513, 5470, 16404, -9347, -3541, 15673, -3410, -2762, 18198, -13413, 639, 6844, -8773, 11524, 336, -11829, 9458, 15998, -7509, -2339, 12453, -6731, 6766, 16889, -3483, -5745, 17813, -3076, -4253, 8280, -9978, -1953, 11498, -13122, 8371, 5012, -4294, 3199, 8384, 7130, 907, 456, 13310, 596, -1601, 18182, -5236, -3800, 20077, 1165, 1031, 24456, 2396, -7025, 19351, 2495, -5770, 11475, 1659, -1846, 17664, -2433, -2092, -3000, 9790, -9376, -15428, 3931, -5059, -20501, 7032, -3099, -10927, 8630, -6965, -16933, 1751, -8876, -8852, 13330, -12624, -12316, 18594, -7099, -10330, 15918, -7063, -14602, -2974, -3958, -11324, -5087, -4239, -14867, -9351, -7154, -24037, -5474, 3003, -19888, -8126, -7534, -14568, -10558, -1331, -12202, -297, -7615, -15793, -3049, -6518, -7683, -5948, 3178, -5747, -4471, -326, -12411, -5069, -683, -13661, 624, 3237, -13064, -8548, -3919, -8010, -7228, -3887, -13526, -4118, -204, -7811, -3017, 1880, -8053, -1234, -6801, -13973, -8011, 5287, -13034, -5346, 569, -14633, -1306, 536, -16071, -6271, -1143, -11382, -9311, -5906, -8498, -968, -802, -11921, -10126, -6668, -4253, 676, 19509, 235, 8887, 10628, -4126, 9813, 16154, -6889, 6869, 17272, -7789, 11640, 4358, -2328, 2494, 18947, -3550, 5761, 12316, -4222, 5449, 9823, -3406, -3800, -4568, -1777, -1460, -771, -1749, -179, -9331, 3823, -6977, -4841, -941, -4769, -5129, 2458, -3083, -12953, 2538, 639, -8835, 4628, -9871, -3084, 2268, 685, 9056, -6120, -7811, 7713, -12768, -4177, 6746, -9581, -9835, 10364, 1169, -11309, 6560, -4187, -9328, 7050, -14302, -9269, 2317, -20522, -3347, 9100, -5448, -4466, 4015, -12033, -496, 4929, -10496, -3660, 9539, -20591, -3397, 6302, -8812, -7600, 919, -19429, -13886, 130, -14457, 1637, 3023, -14641, 411, 3667, -3630, -4540, 12436, 563, -6384, 9349, 3501, -7882, 4877, 7316, -3772, 4002, 9580, -7470, 3870, -6945, -12617, 5201, -14252, -11269, 5817, -10868, -435, -235, -4624, -5743, 10576, 1769, -152, 7584, -318, -9477, 5998, 990, -6385, 14541, -5554, -12903, 7829, -1476, -14141, 11842, -11388, -9758, 4618, -2411, 4589, 8429, -6990, -5355, 5842, 9027, -3042, 6393, 5420, -9006, -82, -11330, -13399, 12032, -10059, -5088, 13007, 6494, -3448, 8725, -747, -11676, 6767, -10479, -7409, 4752, 11811, -5520, -8526, 1449, -5900, 529, 16081, -4222, -12602, 15069, -2758, -5712, 13085, 2499, -10463, 12127, -3192, -3248, 9223, -8311, -3465, 12516, -7467, 2355, 13582, 3794, -1938, 7564, -1728, 3398, 12159, 5589, -2827, 16335, 7490, 3597, 13197, 5501, 543, 13392, 3035, 497, 12231, -882, -7921, 12117, 3323, 278, -10600, 12916, -1376, -2852, 15997, 2217, -5470, 12847, 7145, -12806, 15051, 9674, -13060, 15429, 7265, -10497, 14288, 7227, -17280, 12235, 11106, -10804, 19262, 7797, -13956, -4439, -9067, -9023, -7870, -9806, -13604, -12842, -3868, -15274, -7673, -12644, -17791, -6800, -5091, -17769, -5169, -9080, -6868, -1813, -8901, -13013, -11344, -4331, -12026, 7324, 7292, -5982, 19329, 7362, -4019, 12714, 6422, -10643, 22111, 5389, -5650, 13150, 2352, -7036, 17362, 14334, -10565, 8029, 1632, -8752, 21661, 12996, -6737, -2707, 3040, -6412, -7003, 3768, -20517, -7863, 8460, -24728, -383, 5074, 2279, -1210, -3228, -1331, -9123, -140, -13103, -4236, 1407, -17050, -8276, -886, -14390, 2670, 3668, -14622, 1644, 3260, -10671, -3775, 3163, -16187, -11275, 3446, -20998, -11551, 4939, -14355, -8483, 4969, -11617, 838, -87, -8337, 3553, -3559, -16534, -6066, -7747, -6227, -8443, -4120, -18196, -6362, -9560, -25000, -6271, -10464, -17891, -6595, -9168, -13770, -3680, -9902, -7244, -11758, 1552, -14779, -9858, -5098, -1889, 5769, 12344, -6490, 946, 3659, 1489, 1280, 15168, 2181, 2496, 14079, -5033, 2664, 15359, -6201, -843, 10277, -14495, 837, 8036, -11916, 5078, 8696, 16443, -1751, -9250, 10611, -2, -5689, 16899, 5314, 2413, 22128, -1411, -1465, 19650, 7207, -203, 22888, 4300, -9646, 12289, 1059, 2502, 20367, -3246, 2397, 7325, -10561, -10690, -1310, -1693, -7632, 10881, -4506, -10661, 11135, -7948, -6903, 9497, -4865, -4729, 8016, -4716, -13110, 3367, -13048, 912, 15731, -2979, -6335, -6820, 8309, 12793, 1530, 1720, 16273, -2379, 3931, 14850, -4850, 9948, 12981, -3119, 10278, 15386, -1667, 9051, 12812, -6792, 7902, 14710, -2594, 11518, 15600, 15622, -4816, -6504, 10600, -1413, 1023, 18448, -929, -743, 17089, 3703, 34, 17023, -7816, -6681, 11360, 1143, -4113, 6721, -5852, -8930, 16664, -6505, -3219, -145, -176, -7934, 2436, 1959, -3334, 5621, 354, -1024, 7661, -79, -10993, 11700, -7265, -10313, 6078, 910, -10816, 6496, -7604, 1954, 10113, -7565, -3427, -1263, 3554, 3785, 1135, 2414, -1388, -20728, -10824, 2556, -20304, -4249, 6850, -15404, -10227, -141, -5944, -11111, -5128, -16242, -10373, -607, -26028, -4797, 3513, -16781, -6186, -648, -11244, 340, -961, -12862, -4148, -2079, -27040, -3626, -2629, -26350, -2988, -5976, -17254, -1298, -7159, -16189, 626, -7411, -18057, 1861, -5755, 18094, 9316, -5990, 5020, -1545, -11560, 17237, 12016, -7655, 19405, 11912, -12787, 16503, 10578, -3759, 15882, 13523, -9941, 16487, 2493, -12088, 20782, 10641, -12597, 1832, 15910, 8483, 2205, 11853, 12781, -2145, 14685, 3375, 230, 15398, 14041, -223, 19612, 5460, 313, 10353, 16252, -3435, 7735, 12822, -7432, 19828, 8492, -1720, -4583, 14740, 2689, -331, 9637, -2283, -11020, 8021, 1099, -10754, 6359, -230, -10561, 3785, -14813, -14792, 12849, -7865, -5337, 8079, -1464, -209, 8823, 15426, 3302, -9112, 10204, 6272, -9191, 19708, 5387, -9529, 12165, -4922, -10069, 743, 6714, 4697, 14324, 17451, -7471, 24141, 6087, -12829, 16802, 227, -7857}
#define LINEAR_1_BIAS {-4507, 2775, -11125, -10164, -2214, 1525, 10636, -10693, -7930, 4090, 15037, -11922, -11274, 8352, -9206, -9598, 3098, -88, -11175, 12576, 6292, 10785, -11866, -12243, 15746, -7943, 3514, -4824, 7422, 6141, 9144, 7477, 3350, 5361, -9170, 6334, 7183, -13642, 17207, -4025, 1300, -7155, -7642, -8464, 3636, 10657, 4949, -11313, 1117, -2519, 2057, -10683, 8781, 4789, 4540, -14035, 774, 17664, -2577, 1901, -11409, -8640, -7752, -9669}
#define LINEAR_2_WT {-82, 831, -4235, 6328, -1591, -4455, 1488, 5417, -4497, 1720, 4632, 6866, -2588, 1512, -5152, -5618, -1091, 3407, 6710, 513, 1529, 3929, -659, -10338, 8261, 6714, 1360, 6122, 881, 2712, 1366, 666, 2930, 1082, -7526, -532, 920, -10363, 1530, 1341, 308, 475, 548, 756, 1855, 2544, 6361, -3753, 6696, -18, 461, -4804, 114, 3830, 234, -10411, 1232, 1439, -568, -947, 5413, -5245, 419, 5791, -2909, 8346, -7593, -4719, -8750, 1702, 3522, -5047, -4839, 6368, 2613, -6777, -8406, 1907, -5870, -10171, 578, 1312, -5086, 672, 501, 3994, -8014, 8734, -867, -5781, -1538, -5074, -1986, -1165, -926, 654, 6657, -6748, -10372, 1114, 1663, 4342, 2445, -2162, -2593, -5184, -3451, -4653, 3494, 4345, 4907, -7780, 6167, -1820, -1940, -7717, 976, 8542, 3205, 5283, 6372, 1195, -4577, -2640, -6474, 9315, -3329, -4987, 2650, -9274, 2786, 15, -2454, -224, -3112, 0, 306, -12727, -82, 0, 816, 2449, 1759, 1921, -1475, -4963, -8, -10414, -3102, -1222, 0, 7923, 385, -1857, 900, 2671, 3660, 2550, 3143, 3355, -9123, -6584, 3893, -3795, -6929, 10298, -11249, 4379, 59, 2330, 4343, 3329, -9991, -3703, 1969, 2784, 1970, 1316, -1066, 4315, 2724, -5664, -10578, 10093, -11941, -11124, 1093, -6777, 0, 5149, 4373, -1372, -864, 9702, -6820, 2848, -4027, -4264, 3618, 1391, -6178, 3329, 5536, 3663, -5790, 1549, -7431, -7886, -84, 716, 2835, 139, 1573, 6046, -2885, -4965, 12771, 4887, -578, 5616, 1045, 1313, 685, -172, 8948, -217, -9583, 377, 971, -5899, 2894, -1022, 719, 35, 170, -34, 3263, 8075, 11108, -5654, 14442, -851, -912, -7524, 1100, 8977, 3324, -5346, 6804, 1949, -418, -3838, 2846, 3195, -957, 4398, -231, -3898, 3451, -5720, 3662, 5036, -2775, -5072, 6533, 1025, -4314, -3558, 963, -5566, 4807, 5739, 2291, -1990, -3219, 3788, 1596, -3458, 2321, 1611, -1470, -6104, -2330, -5839, -5589, -7844, -7667, -6405, -4784, 3244, 9751, 3177, 4505, 2727, 3133, -1587, 128, -1200, -2323, -161, 675, -4273, -4329, 5051, -4703, 47, 1862, 5726, -6311, -1885, 3660, 2383, -2446, 3750, 201, 5961, -5089, -256, -2539, -5479, 2635, -5530, 9713, -3973, 5865, -945, 938, -3861, 9935, -3001, -597, -4668, 7244, 2544, 8222, 15022, 3193, 4135, -4537, 2073, 3673, -1352, 5848, -5197, -7168, -3571, 2598, -6542, 844, 3305, 4524, 3167, -4862, 4814, 16487, 3951, 2733, -1780, 724, 3720, 6585, 4372, 3497, 4232, -1486, -2790, -8693, 8272, -6997, 7981, 4803, 8486, 3531, -5334, -2221, -3295, -4385, 434, 6601, 5288, -1843, -9856, 3683, -4917, -8134, 4797, -2626, -6015, -2474, 2352, 2640, -6534, 915, 3509, 866, -7425, -2381, 1117, 1470, -1824, 372, 1164, -5903, 2740, 1934, 2242, -3641, 4391, 274, -6670, -5069, -5537, -4251, -6526, -4042, -5595, 2031, -3733, -3070, 621, 1918, 5536, 3189, -8806, -7544, -7965, -7824, -9649, 3011, 2429, -2771, -1279, -739, -10375, -5589, -1438, -3987, 4274, 1676, 6411, 4006, 2924, -11742, 802, -4519, 6821, -8992, -5984, 1798, -7093, 8040, -4552, 6532, 5689, -2420, -712, 7849, -3295, -2640, -3336, 7295, -924, 8680, 7460, 1340, -2565, -4615, -449, -152, -4055, 3369, 6716, -8620, -4592, 379, -5098, -546, 806, 1108, 1553, -10368, 3878, 11278, 1334, 822, 6417, -33, 52, 2115, 896, 346, 1085, -4260, -6724, -10151, 7429, -9307, 1465, 1791, 8744, -174, -8763, -1685, 8597, -7063, -2730, 1872, 3992, -2619, -1088, 568, -4486, 6575, -5689, 11438, 2658, 10249, -1110, 1270, 1111, 8420, -2603, -221, 1650, 8227, 1535, 7563, 15026, 6215, 1311, 590, 1661, 2112, 54, 10066, -10639, -600, 3762, 6690, 2666, 2514, 3771, 3008, 3188, -5286, 8940, 16982, 3161, 3010, -5424, 540, 3792, 9571, 7955, 6339, 5606, -3239, -1231, -3635, 10074, -4225, 8491, 8343, 11629, 1757, -5192, -1358, -5064, -4597, 1229, 12011, 9567, 4225, -10466, 6447, 1752, -1018, 11466, -6474, 2143, -5335, -4180, 4702, 3132, -7956, 5015, 7994, 4898, -4996, 2183, -8507, -10621, 306, 2194, 3935, 2097, 205, 4983, -5723, -4847, 12862, 1280, 170, 2888, 2649, 484, 1968, 1548, 10018, -3214, -12244, 1623, -103, -6903, 2600, -1002, -1099, -716, -1424, -1779, 3929, 13029, 13112, -8947, 11687, -1306, -616, -8123, 1000, 12649, 3311, -4190, 5450, 4261, -2904, -3841, 3635, 2944, -1389, 3634, 3127, -5842, 9215, -3371, 4812, 1885, -2354, -2633, 8635, -256, -3654, -5064, 6896, 815, 9304, 11180, 1891, 3780, -3649, 2303, 2933, -2543, 4969, -2443, -10473, -1887, 2243, -2238, 343, 717, 810, 526, -5682, 3120, 14219, 1171, 3637, 1410, 922, 2941, 4766, 3219, 1292, 2406, 907, -5829, -9221, 7748, -8488, 5906, 1643, 8033, 2989, -5066, 1017, 2181, -3650, -733, 5205, 5891, -150, -7370, 774, -1123, 2895, -713, -2094, 7722, 2097, -8061, -310, 8115, -6224, -267, 2013, 9705, -660, 2916, -6170, -6199, 727, 2541, 9274, 859, 1152, 1190, 2676, -14703, 5220, 9659, 3620, 6110, 2659, 1503, 597, 2001, -1763, 6445, -6599, -363, -1399, -14458, 985, 1467, 2628, 3666, 2033, 2772, -2313, 1392, 2449, -1841, 372, 3622, 2706, -4056, 2288, -725, -1440, -17204, -766, -494, 2777, 3153, 8533, -7831, 1650, 10341, -967, 8179, -5357, -2684, -8415, 1625, 3639, -3601, -4184, 4825, 3143, -3662, -8326, -599, -5019, -9041, -761, 629, -6387, 888, 585, 2812, -5710, 5394, 2003, -4731, -1768, -5303, -336, -1673, 25, -376, 6440, -6220, -8419, 354, 317, 3334, 971, -1054, -1518, -599, -744, -1544, 6459, 3056, 4223, -7609, 4008, -2881, -1409, -6172, -823, 5656, 4847, 4990, 7021, 1440, -1061, -3924, -4962, 11173, 562, -5369, 4095, -1978, 2491, 6149, 6033, -3811, 1290, 4915, 1129, -1784, 75, 5689, 6592, 786, 15, 6114, 1613, 3338, 8328, 307, 2014, 487, 6637, -12834, 485, 7042, 4659, 6128, 2101, 2875, 3403, 2775, -411, 7160, 6467, 734, 1172, -12491, 46, 6777, 6302, 8373, 5490, 7267, -2259, -292, -1229, 1988, -2388, 8939, 4860, 3498, 1905, -1944, -2103, -12848, -2214, 557, 10617, 4881, 6648, -10757, 6126, 6619, 3712, -2357, -3572, 10233, 1904, -6944, -1131, 6834, -4027, -1384, -378, 9085, 669, 741, -5586, -5274, 950, 1567, 8702, -236, 985, 703, 4164, -12444, 1798, 8661, 2684, 8824, 3390, 4678, 1995, 2835, -2390, 8054, -8056, 1133, 1007, -17111, 860, 5860, 5392, 4224, 5000, 6511, -1347, -1194, 1042, -876, -1039, 4686, 4094, -3514, 2470, -1081, -2451, -16576, -1920, 298, 4292, 2805, 10687, -10240, 5316, 8122, -348, 3204, 2242, 4213, 2317, 2090, -1238, 4640, -491, 1071, -2136, 4857, 2237, -1752, 676, -65, -7519, -626, 5365, -2223, -5643, -2991, 2286, 0, -2618, 4052, -11, 5191, -2040, 158, -584, -4, 2087, 2990, -5802, -8629, -5643, 0, -1336, -96, -28, -2213, -1531, -1238, 592, 1087, -117, 2233, -22, -143, -5029, 1151, -823, 3404, 715, 0, 2976, -471, -3422, -5810, 5030, 0, -1158, 5074}
#define LINEAR_2_BIAS {9977, 14423, -18373, 18327, 10359, 5106, 7156, -10207, 1325, 22871, -6287, 3529, 10411, -4833, 9995, -21454}
#define LINEAR_3_WT {-19320, -20804, 6307, -21172, 12924, 5217, -3398, 18372, 8036, -18925, 8355, -1691, -23742, 7804, 3819, -4702, 2282, 9231, 14488, 5358, -2740, -15247, 17537, -6360, -7978, 4650, -17015, -10207, 6884, -18795, -12745, -10128, -16099, -16467, -3735, -15782, -8618, -14122, -13709, -8534, -14439, -15151, -10357, -10593, -18175, -12612, -11616, -23, 7161, 422, -18633, 4190, -14881, -291, -18395, -18394, 4877, 3225, -1928, 13351, -2497, 7735, 9646, 10695}
#define LINEAR_3_BIAS {-9525, 6646, -30154, 1624}
