#define LINEAR_1_WT {-7948, -14863, 10016, 12560, 4254, -4154, 1333, -2156, -5544, 15730, 11331, 7532, 3293, -1237, 19265, 1973, -9714, -1094, 13381, -10461, -13, 840, 8551, 14922, 5782, -6990, 8582, -6367, 384, 139, -5538, 17, -9517, 5552, -697, -7647, -10871, 3032, -13619, -126, -1625, -6378, 4149, -72, -4358, 2659, 5179, 6692, -3374, 1453, -5966, -9062, 11236, 6932, -7800, 8418, -10294, -2972, 12749, 1542, 3027, 6332, -295, -3744, 1622, -12186, 14489, 8279, -5908, 3430, -1930, 14569, -9625, -11920, 3823, 5644, 15400, -14261, 9167, 413, 9642, 3344, -6100, -4591, 209, -3055, -2592, -2854, -9965, -2602, 1551, 7735, 12725, 12577, 7145, 5051, 1063, 3485, 412, -7386, -11072, 983, 7955, 355, 1661, -12212, 4548, 13319, 9228, 9499, -929, -4474, -4312, 9381, -9690, -848, 2536, 5871, 4005, -3496, -11643, 8010, -399, 743, 7849, 16167, 705, -3898, 15059, -14637, 7334, -4983, -11137, 8871, 1296, -9621, 3111, 209, 13681, 9828, 8730, -7834, -707, -9944, 5285, 10477, -5778, -9070, 1323, 12749, -1495, 7618, -249, 4491, 6948, -12535, 1137, -7153, 1082, -15894, -1884, -9126, -3912, -6289, -2093, -7160, 4267, -5734, -864, 7976, -12393, -12021, -8551, -13381, 8642, -8715, 14364, 9154, -3814, 15038, 9655, 12107, 15970, 4512, 9940, 859, -9075, 8980, 7119, -8382, 10239, 465, 16896, -4361, -6485, 16032, -10856, 6402, -7851, 6998, -6146, -6127, 11221, -10450, -4515, -5965, -4787, 10769, 5866, 2576, -2190, 10869, -12974, 2284, 7291, 2152, 8534, 3360, -8114, -10924, 12862, -2211, 2646, -10091, 8245, 8472, 14015, -3506, -1874, 6655, -7289, 9455, -8478, -11923, -3187, 6282, -6886, 12106, -8159, 568, 10641, -13474, 9741, -2677, -10728, 8958, 6923, 5317, 8954, -1795, 5705, 3292, 12280, 531, -6183, -6535, 6118, -5363, -301, 3293, -12037, -5024, -10745, 8176, 5781, -4217, 4482, -7709, -1545, 13770, 14220, 8062, 5074, -13251, 10209, 11528, 5197, 3911, -784, 14478, -3031, -16482, -12987, 6703, -2318, 951, 14730, 4028, -6669, 8251, 20157, 2985, 6672, 5311, 1152, -9924, 4686, 1564, 4341, 14218, -1585, -4525, -14032, 16700, -6303, 9551, 10541, -658, 16257, 10567, -15180, -14922, -6081, -11874, 4018, -10782, -5230, -751, 16285, 9693, -5412, -3738, 9849, 7467, 4731, 6452, -7117, -7765, 8650, -15754, 3811, 9999, 13398, 14096, 1050, 4251, -10405, -1598, -13117, -11225, 4453, 8366, -12240, 271, 18209, 1990, -1129, -778, 2992, 15426, -5093, 10300, 1495, 10606, 2542, -12952, 5779, 6971, -6598, -16, 8752, 9145, -8826, -5060, 3355, 9269, 6280, -2830, 12905, 11531, -1738, -6528, -637, 5742, 15472, 13616, -6005, -5748, -7584, 2498, -2728, -7778, -12030, -11519, 1535, 11509, -1079, 13617, 12778, 8732, 2498, 15978, -5079, -9547, -4923, -5233, -6311, -9241, 1116, -5356, -6379, -6673, 13310, 5820, -2606, -11110, 4317, 3201, -7789, -2991, 9147, 7345, 9108, 1121, -8457, 8789, 2167, -8694, -4498, -4646, -5140, -13498, -15775, -12054, -4009, -8399, -6372, 7125, 1716, 12761, -3340, -6110, -2491, 555, -10635, 11197, -5818, -11864, 4915, -5594, 20481, 509, 10242, 17134, 10555, 6487, -7967, -4214, -357, -11578, -9942, 6355, -11249, 13021, -2395, -4318, 11629, -13983, -9005, -7655, 6323, 10806, -4965, -979, 13733, -348, 8045, -479, 3283, 5615, 3056, 19461, 8085, -11040, -1092, -4318, -8790, 4538, -10596, -6608, -11319, 11598, -9925, -4600, 7931, 6029, -6100, 873, -11681, -2857, -2235, -3609, 3427, -12829, 8115, -15364, -1682, 8546, -1579, 6698, 7873, 1303, -7709, -12059, 329, -584, 3965, -10446, 12210, 1018, -94, -6341, 1931, -7724, -3960, 1376, -9274, 1352, -5163, -4191, -2995, -2081, 6649, -4403, 7427, -5208, 9100, 2198, 3061, -5351, -4108, 2407, 8989, -4567, -5477, 125, 14, -8016, -2621, -1644, -8975, -5707, 177, 2887, -3085, 2867, -1404, 12303, -7975, 9115, 8186, -5403, 7636, -8057, 17247, -9079, 11968, 19478, -4817, 2835, -529, 7560, 10691, -11751, -455, 4162, 8619, -2298, -8927, -4801, -7759, -499, 15874, 18836, -6797, -6654, -10205, -2092, -2773, -3859, 1353, 12754, 13834, -8346, -1030, 2299, -6343, 8581, 3565, -9375, 1069, 3951, -7857, 3898, 15784, 11065, -9475, -9083, 6902, 17550, 8996, -7080, -4155, -2464, 17874, 2681, -12156, -5713, -4600, -11680, 16092, 1749, 8645, -9770, 6056, -6251, 8743, 2427, -9, -3917, 9099, -2669, 5976, -593, -2002, 9169, 20129, -2565, 6835, -9441, 7834, 13062, 3713, -10968, -11097, -10942, 2202, -1267, 8225, -9448, 10010, -4015, 4027, -5388, 13737, 7912, -3097, -14504, 3656, 4137, 8291, -8744, 11020, 3356, 7419, -5754, -306, -6702, -8690, -8106, -9712, -1933, -5576, -4581, -7220, 11271, -7866, -4431, -3916, -1590, -10293, 5296, -10556, -9702, 10719, -5388, -2247, -8012, 3778, -3577, 6144, 7347, 9055, -2503, 8038, 9704, 8388, 17425, -7391, 2923, 257, -6519, 6148, -10647, -726, -7356, -14993, -12640, 8650, -998, 3192, -9512, -4372, -2371, 16958, -2666, 19025, 8017, 4823, 9761, 1960, 16317, 13198, 1306, 1379, 5723, -335, -3988, -6933, 3013, -10587, 6321, -7445, 13566, 1019, 730, -11466, -4780, -396, -1091, -74, 10032, -11259, 8988, 16056, -3931, 5374, -3008, -1390, 747, -846, -11316, 11522, 4090, 10517, -10002, -8402, -4618, 13393, -2871, 989, 11153, 8537, -8585, 11311, -6202, 7459, -13691, -414, -7148, 16761, 3102, 2184, -13295, 7664, -3070, -1807, 6926, 1880, 5912, -8794, 11020, -3393, -6295, -2839, -4645, 2872, -4150, -12561, 1176, 1987, -6741, -7792, 1930, -4052, 1172, 11444, -300, 2599, 1514, -7337, 2631, -9155, -4380, -9898, -5101, -10436, 4094, 11108, -8890, 7084, 4863, 9086, 7415, 22967, 5088, 11777, 11402, -2461, -9224, 11187, -4032, -1173, 7633, 11291, -4609, -9092, -4633, 8784, -4318, 514, 6269, -10815, 464, -3608, -3575, -8545, -10174, 4908, 4491, 4797, 12203, 8605, 5327, 9764, 5372, -12331, 4319, -8004, 8945, -7531, 7325, 10563, 10687, 11319, 10500, 3177, -7741, -3303, -9125, -3871, -9242, -3418, 5196, -8513, -13242, -8951, 1731, -9397, -3225, -4489, 1971, -876, -11577, 538, 11044, 14394, -9530, -15115, 14240, 12425, 3147, 8016, -1680, -7889, 7675, -3727, -10630, 7296, 708, 5872, -10647, 4761, -1207, -199, -6559, 5538, -4352, 6265, 13397, -8673, -466, 4818, -4888, 2978, 9169, 3321, -8727, -5538, 10701, -6708, 9134, -14600, 4288, 4743, 7626, -6007, 6336, 5691, -9138, 12, -11016, -8256, 4392, 10720, -1529, 6172, -5038, 13173, 318, -12090, -6393, -13515, 8545, 7172, -11603, 3720, -14129, -3125, 9833, 511, -8042, -2149, -2747, 2565, -10420, -7437, -3885, -9006, -1887, 3266, -12386, -13331, 10383, -810, 10264, 12056, 4117, -1095, -6398, -18, 15345, 9584, -12081, 10783, 6862, 7017, 8109, -3523, -8689, -318, -4067, 13493, -907, -3758, -6227, 7797, -2847, 3489, 11905, 13214, -2120, 14733, 15420, -8080, -5474, -10712, -8005, -11538, 3919, -5000, -8651, 6927, 7061, 1011, -4635, -5177, 1090, -2761, -3017, 3864, -2399, -3212, 4667, -1431, -3296, 4344, 6683, -10244, -6083, 3021, -1732, 7280, -9097, -605, 2692, 12850, -6056, -7626, 11617, -9137, 7973, 7763, 3431, -1742, -1408, 2908, 8183, -438, -3137, -2639, 5226, -2797, 5317, 89, 16221, 2140, -12234, -10933, 10957, 5826, -6813, -12287, 9187, -6091, -7986, -5525, 1428, 2901, -4364, -3496, 10770, -125, 9679, 137, -6674, 7522, 6967, -13760, 9676, 9493, -5019, 1888, -662, -5729, 11693, 2052, -2326, -4281, -4321, 9941, -4730, 12462, -4046, -9517, -7448, -10314, -5536, -5523, -2131, -3569, 3928, 9620, -629, 2704, 3348, 1737, -7481, 1808, -10946, -9284, -2767, -1761, 9306, 11797, -14251, -1223, -11375, 3580, -3982, 9389, 2517, 5281, 9307, 2302, 611, 9503, 3927, 1153, -3291, 4254, -13094, 7488, -386, 7283, 6629, -1742, 12526, -13898, 12131, 3214, 7329, 2424, 596, -2005, -12568, 15464, -2241, -9702, -13041, 7273, 3927, 2762, 6742, -7226, 21, -6548, -1111, 11149, 2984, -8114, 7161, -6806, -640, 13062, -4706, -8344, 13745, -12855, -1219, -13719, -3022, -9261, -4526, -6536, 1681, 376, 3360, 2311, -9771, 8881, 4229, 5986, 12350, 6375, 15828, 11809, 1121, 10056, -4515, -3190, -3061, -10586, 3258, -11173, 13916, 6642, 2921, -7119, -11658, -3460, -1711, -6624, 4915, -10944, -1620, 599, -3006, -15467, -6289, -698, 7528, -5990, 6808, 10937, -2342, 6971, 15962, -4089, 12263, 6786, -8181, -450, 3785, -979, -276, 13932, 749, -11674, 10071, 3796, 5565, -5464, -8917, -5474, 10963, 1463, -4322, 10228, -557, -6669, -8139, 11038, 2939, 7290, 7836, -12373, 9931, -693, -2810, 11909, -11324, -4242, 2717, -9207, -1851, -5069, 10363, -3001, 4862, -12311, 11738, 13873, 8916, 7526, -2446, 7367, 9924, -349, -8417, -9297, 6446, -10477, -5477, -427, -1041, -8486, 7997, 11326, 25107, 13282, -10637, -10110, 7597, -2443, 3700, 13840, 3223, -7809, 50, 3045, 8745, 4888, 8389, -6102, -7378, 14599, -515, -2119, -9791, 1702, 1573, 11572, -4498, -15396, -637, -7340, 2825, 584, 6332, -687, 10566, 7708, 2991, 9110, 13689, 5671, 269, -1297, 3899, -7430, 11677, 13711, 6959, -10965, -5334, 1656, -8066, 7612, -10058, -1936, -12102, 2193, -137, 6399, 7014, 8515, 9571, -7542, 3437, 10592, -7208, -7746, 1620, -768, 4864, -3143, 10335, 4558, -7491, 5024, -6243, 1470, 16546, -6799, 2433, 8181, 8045, 2657, -11820, 7743, 12235, -212, -2851, 8959, -1386, -4180, 1340, -9605, 4875, -8992, -1136, -6013, -4795, 5211, 8269, 2533, 5535, -10040, -1748, 10018, -8289, 3588, -2705, -9495, -2270, 4664, 7515, 5428, -1308, 15850, 5239, 2023, 2235, -14379, -9331, -4736, 9461, 9058, 10214, -12542, -3495, 3432, -7034, 1786, 2657, -10638, -3778, 3902, 7295, -11436, 11353, 9324, 11331, 2782, 15254, -408, -13545, -11671, -5861, 2582, 12114, -5082, -1896, -475, -9255, 9440, -3134, 2733, 2265, -2967, 3283, -13999, -1048, -7342, 6088, -11437, -4137, 9446, 5906, 1752, -6018, 12111, -2060, -517, -1813, -1153, -2153, -6729, 3588, -7734, 14, -6774, 13503, -10242, -8129, 6201, 1542, -1772, 11065, -8354, 6627, -3371, 11855, -11982, 7824, 10014, 5491, 12621, 736, 1636, -3711, -8898, 10513, 10056, -11070, 3883, 6572, 9175, 15033, -14224, 3678, -2976, 14909, -342, -6275, 7404, -17134, -4679, 9307, 1633, 15504, -1337, 4006, -2252, 1703, 11921, -10319, -6732, -1271, -8786, -2690, -15831, 3494, -8642, 9460, 8407, 13987, 5462, -8056, 3673, 8190, 9891, -754, 9306, 3940, -8065, -2571, 4373, 2242, 14026, -11264, 602, 10941, 4999, -8450, -4860, 807, -7817, 13553, 11018, -12028, -5449, 6239, -11236, -3038, 2223, -1942, 3211, -7650, 9985, 3094, -4149, 14571, -1943, -6705, 1496, 5498, 5342, 11135, -6988, 8210, 12137, 1175, 9635, -3917, -6663, 9857, 1543, 1957, -13048, -1902, -5654, 3924, -10105, -11413}
#define LINEAR_1_BIAS {4478, 312, 4638, 2434, 2220, 4497, -6189, -114, 9291, 14807, 3964, 6499, 5194, 3353, 4650, 4990, 2985, -5936, 4602, 11094, -10403, -13260, -12673, 7464, -1197, 3774, 12277, -3957, 7618, -2515, 5990, 9941, -4668, -3194, 6934, -7941, 4329, 6001, -6473, 2966, 4404, -8394, 6360, 9901, -7591, 1899, 4115, -17773, 4461, -3733, 12362, 15876, 855, -1177, 11234, 9812, 2219, 810, -20361, 9303, -187, 300, 7216, 6398}
#define LINEAR_2_WT {-3652, 4367, -13342, -6191, 2772, -3396, 2367, -12275, -8154, -697, -1899, -10391, -13847, -7919, -3983, 3350, -10313, 6603, -3602, -304, 1965, 8921, 4439, -9525, -12598, -10635, -12515, 4613, 5211, -17628, -1016, -3596, 6852, -1352, -694, 6387, -9103, -3455, 4799, -2895, 7223, 6676, -9401, -5169, 6070, -7464, -10458, 9169, 2254, -6564, -1817, -1014, -17096, -11620, -5166, -2321, -7589, 3017, 6434, 116, -10900, -1415, -3526, 1152, 16269, 69, 6503, 13189, 1232, 12689, -3014, 10431, 7862, -423, 1310, 14577, 15197, 15960, -488, -5716, 4766, -2311, 1810, 1415, -3408, -7053, -3377, 6510, 5430, 9393, 9871, -2013, -3178, 9160, 5183, 8356, -4059, 1161, 398, 128, 13403, 14343, -2320, 130, 1563, -4116, 9498, -856, -3744, 3534, 8437, -3420, 2508, 6406, 7609, 1352, 5898, 14326, -2008, -5423, 14128, 9418, -4840, 9491, 6138, 2490, 5898, -1011, -2571, -779, -6556, 10236, 5895, 7619, -558, -1967, 13506, 22630, 4453, -13255, -4954, -5469, 14324, 11547, 6790, -257, 16987, 13200, -708, -2526, 2899, -10466, 8991, 12466, 7767, -339, 11795, -145, 8730, 12271, -917, -1056, 6913, -201, 5229, 9054, -628, 11185, 16839, -619, -5758, 18582, -600, 12478, 2183, -1206, 11666, 1392, 9949, 13790, -15719, 16, 7941, 11482, 11249, 16450, -2390, 13182, -1602, 13366, 9809, 16111, -5475, -261, -4727, -4614, -2265, -4067, -110, -8623, 3617, 2262, 6615, -7879, -13164, -3560, -6336, 9697, 4108, -16, 5459, 296, -83, -1242, 297, -9763, -9349, 1299, -1991, -33, -1672, -9869, 1222, -13647, -282, -7574, 4170, 46, -3424, -1182, 46, 5949, 3356, -2955, -6048, -2523, -40, 2020, -12770, 386, 8478, -10719, 4085, 2436, -9486, -10552, 6228, 11368, -12707, -341, -666, -69, -11197, 762, 3360, 7224, -17426, -7, -7711, -6259, 589, -8515, 80, -11547, -959, 4639, 5178, -5402, -12226, -2470, 2190, -541, -1093, -47, 2512, 2067, -160, -542, -151, -851, -11278, 1923, -8691, -49, 4145, -15973, 5659, -4953, -707, -7688, 6056, 16, 710, -4917, -14, -9120, 6809, -777, -3353, 298, -66, 2059, -743, -376, 8281, -9750, 5799, 6186, -9152, -7290, -400, 8426, -5241, -483, -637, -830, -11888, 6196, 4408, 10606, 2910, -833, 15748, 8071, 5194, 2360, -3860, 1026, 8234, 224, -1206, 14194, 11995, 15805, 4323, 826, 14429, -1846, 434, 1033, -6441, 4772, -8738, 8930, 5384, 5100, 1710, -8812, 4157, 12146, 1403, 4567, -264, -2055, 6520, -7976, 731, 4690, -3567, 3356, 48, -4944, 7959, 5256, -7869, 5630, 11387, 688, 5050, 5392, -1621, -1835, 9849, 9985, 3254, -2274, 2688, 5892, -2418, 9287, 7328, -6342, 2747, 182, -401, -3761, 266, 2092, -805, -804, -2450, 1447, -6509, 1834, -10750, 4690, 9215, -243, 1756, 3368, -1021, -10004, 3312, 318, -7654, -4696, -5161, -1909, 9457, -5229, -1845, -6316, 7109, -1679, 1021, 6129, -1599, 10421, -6065, -12280, -3173, -2602, -13376, -196, 3928, 296, 430, -2734, -2794, 751, 5933, -6698, -3474, 11525, 4891, 3925, 3188, 4580, 619, -8650, 2613, 118, -2113, -1187, 6068, 5795, -7013, -4207, 0, 706, -1833, -8673, -2198, -7458, 671, -7, -14117, -15260, -10613, -71, -1048, -7267, -8366, -7256, -10004, 426, -15522, -8118, 892, 44, 3778, -43, -15419, -5789, -12434, 531, -13492, 0, -5805, -10615, 2031, -27, -8253, 570, -2438, -13252, 940, -9220, -10648, 2793, -6721, -18204, 1112, -10274, -691, 1901, -10438, -213, -9625, -8011, 0, 0, -10086, -9922, -11118, -7179, 4301, -11436, -118, -4582, -11525, -13524, 0, 1036, 4162, -3512, -9338, -12810, 1338, -1, -8528, -16583, -1246, -97, 5601, -8911, -10288, -9627, -4262, 543, -13810, -6169, 1300, 3019, 3729, -492, -4736, -10270, -4611, 1191, -14611, -18, -7909, -15522, -225, -77, -13089, 824, -10259, -7336, 1228, -4892, -12850, 766, -1078, -14333, 1432, -3339, 1125, 743, -6549, -7069, -6211, -10055, 0, -30, -2832, -12894, -3603, -7411, 3264, -7810, 247, -6192, -14296, -8814, 7509, -1997, 2705, 11429, 4718, 13361, 1011, 5965, 4685, -3845, 2478, 4277, 3260, 14647, -3265, 2573, 5162, -760, -1250, 485, -4193, -886, -4663, 9802, 15847, 1099, 1787, 451, -2475, 7130, 6490, 3852, -5538, -3338, 1520, -1449, 9197, -3831, 98, 942, 2780, -5382, 13428, 2753, -5007, -2400, 7001, -5799, -3070, 3004, -1689, -3468, 8198, 8261, 314, 504, 2875, 8854, -5795, 3885, 14999, 7210, 3980, 2987, 5590, -6973, 7563, 14807, 1964, 12279, -1605, 3062, -2614, 3948, 5128, 7199, 17043, 4509, 809, 3007, 12617, -4496, 2764, -2768, -455, 516, -1338, 8360, 4640, 5721, 6443, -5328, -1569, 5578, -1356, 11337, -4644, 3574, 5371, -1293, 9844, 9131, 967, 3697, 37, 305, 7136, 2457, -2165, 8696, 14749, -7647, -1871, 2459, 6725, -604, 7635, 6502, -684, -7001, 8719, -229, -6155, 5077, 5752, -3949, -3949, -4746, 5937, 64, 5045, 4972, 3588, 2837, -1613, 7191, 8265, 1205, 709, 8883, 7953, 5758, 1267, -2343, 2737, -6543, 818, -1994, -3556, -6437, -6074, 12246, 7420, 5523, 15078, -3246, 2438, 6708, 4368, 9054, -4744, 6363, 7022, -8504, 5868, 5308, -4472, 3410, 1301, -159, 8663, -1285, -4841, 2717, 7156, -1068, 1766, 2402, -3406, 3194, 17015, 10428, 2123, -6873, 7634, 3579, -117, 3620, 12080, -4444, 3364, 657, 11033, -86, 5299, 13256, 10775, 14477, -182, 16235, 14221, 14068, 9763, 14797, 7258, 11608, 10927, 3678, 10670, 43, 8524, 9626, -324, -1950, -2180, 17203, 14094, 10183, 12611, -198, 13992, 12780, 12186, 4756, 71, 9136, 8858, 125, 12075, 9036, -87, 5128, 10131, -1681, 16363, 8293, -352, 6566, 9647, -808, 10611, 2843, 6929, 4105, 13568, 15314, 7648, 7602, 6458, 6756, -1859, 6922, 10735, 3256, 9598, 4892, 17029, -2462, 3413, 2095, -7073, 9904, -3452, 8587, 2726, -3888, -1011, 388, 6435, 8507, 2614, -2096, 3463, -3044, -2119, 5407, 1149, -2104, -3733, -637, 8136, 1705, -714, -3241, -3379, 11536, 5625, 8095, 4778, -4233, -866, -1829, 3817, 5810, -4133, 518, 874, 627, 8116, 4069, -3507, 3524, 8632, 981, 4746, 1484, -5632, 2396, 11287, 7252, -219, -409, 15128, 3988, 1950, 3170, -1158, 586, 3927, -3306, -6668, 9141, -1917, -14351, -3132, -13496, 4446, -1424, -11212, -233, 4147, -14268, -6019, -11692, -723, 5485, -6907, 4707, -1784, -94, 3099, 45, 2879, -11301, -4234, -5539, -10841, 4728, 223, -10626, -1143, -11186, 3075, -4659, -4034, 7396, -10227, -6245, 8989, 2751, 772, 2044, -1812, -5631, 2876, -2844, -17438, 6754, -4193, -2990, -2916, -4469, -13105, -7177, -1647, 8006, -11193, -7251, 14060, 1161, -11843, -6563, -4718, -129, 15085, -384, 8526, 15339, 4966, 6915, -463, 16683, 7499, 16098, 11790, 20770, 3281, 15934, 12297, 9712, 6968, -38, 11903, 11166, -551, -2701, 1697, 16545, 16049, 7168, 19584, -740, 9186, 11302, 11170, 6617, -215, 15701, 9161, -1, 12585, 13151, -611, 13187, 15173, -1319, 7673, 20054, -674, 8306, 9764, -1941, 11450, 10760, 5359, 12130, 13231, 16914, 8882, 5913, 18853, 17838, -1574, 9814, 15514, 10278, 10533, 8252}
#define LINEAR_2_BIAS {8005, -2076, 16775, 18568, 17407, -9441, -1467, -22523, -18283, -847, -8542, -3697, 16313, -5001, -1283, 15207}
#define LINEAR_3_WT {14536, -9863, -17321, -12630, -24673, -19808, -7220, 18859, 15648, -18903, 1250, -2772, -28766, 4621, 4308, -15513, 10797, -1053, 18727, 14157, 16441, -7946, -15070, -15544, -12589, -19154, -9297, -11411, 10550, -3404, 487, 17341, -21353, -13256, -21988, -19412, -11808, -11209, 3429, -29531, -29548, -14233, -2255, -2793, -20659, -13274, -26340, -21214, -5105, 18688, 17809, -10282, -1473, 17476, 14222, -30697, -30300, -411, 20686, 21873, 11021, 18634, -20600, 17666}
#define LINEAR_3_BIAS {-8720, 12036, -17711, -10813}
