#define LINEAR_1_WT {-6765, -10511, 13180, -2026, 4547, 10448, -5092, 2506, 10736, -2938, 12136, -7637, 11004, -11662, -10968, -2039, 10860, -203, 16919, -5966, -4991, 1400, 12321, -6625, -4977, 6805, 2425, -6827, 109, 6804, -15587, -9644, 4929, -7514, -2589, 635, -19675, -13778, -2151, -6830, -5488, 1868, -14249, 10485, 2200, -17268, -7524, -4324, 6582, 1927, 5349, -12722, -8637, 4662, -3488, 2914, 4075, -19022, -9952, -1088, 889, 4882, 3115, -5410, 9316, 364, -4351, -10389, -2077, -15007, -2733, 7690, -10420, -148, 1894, -5134, 7581, 6519, -8814, -4847, -1662, -8567, 4742, 9314, 8648, 11476, -5239, -641, 2677, 11816, -9952, -6617, 4707, -6891, -4188, -3728, 8316, -2684, -882, -5477, 6776, 9993, -1269, -8475, 9327, -2648, 12908, -6523, -1572, -3990, -2015, 4296, -338, -6298, -2971, 9074, 7153, 12038, -7141, -9936, 9226, -5872, -15980, -6037, 6547, 12266, 2694, 4784, 1921, -763, -5120, -56, -12654, 9499, 2507, -2636, 8228, -1684, -1930, -2637, 14068, 1057, 153, -8992, 6675, 14228, 12612, 8707, -2770, -1795, -730, -852, -2151, 3491, 11405, 13588, -9843, -5937, 9103, 14645, 4805, -6509, 863, 1865, 3451, -19541, -10773, 849, 5162, 5688, -6327, -2479, -8006, 5880, 6425, 13950, 2766, 7632, 2513, 7505, -1201, 1642, -2998, 6561, 11125, -11161, -4415, -6762, 10958, 16322, -6701, -259, -955, -1100, -8445, -4173, 14351, -9841, 1489, -12093, 13469, 6916, 4495, 10207, 5163, -1640, 2574, -4391, 14109, -14609, 2190, 237, 7496, 11740, -7313, 5133, 13589, 10428, 8559, -11747, -12883, 6447, -7659, -5984, 3773, 14711, 5516, 4923, -7349, 1000, 6732, 1281, 220, 3438, -6237, 5537, 7438, 5102, 14025, 5114, 1508, 2724, 2995, 4611, 150, 9671, -3560, 5287, -6974, 2389, 8194, -5649, 9460, -11714, -9693, -3262, 1096, 4241, 15520, -2199, 10234, 8009, 10371, -6561, 11700, 6310, 6945, -10691, -8634, 7339, -9844, 8347, 7292, -1685, 6525, 19050, -3700, -6248, 3976, -12131, -786, 12948, 606, -3366, 1280, 5529, 13578, 3510, 9663, 1701, -2000, 5290, -2273, -11158, 9087, -4845, 13018, -13, 11592, -14475, 8532, 11529, 2669, -4674, 2094, 12017, -1139, -2004, 11800, 1032, -7583, -12648, -9779, 7239, -9200, -14435, 3606, 580, -6019, -8348, -1803, -18924, 7673, -1457, -10257, -2713, 4635, -13372, -10502, 2747, -9106, -179, 10547, -8665, -10155, -3100, -2587, 7719, -12196, -2447, 4124, -1023, -4135, 1272, -4574, 1623, -4244, -13186, 11582, -259, 2081, 11119, -2092, 15362, 7574, 13310, 14428, -8332, -7512, 4299, 13553, 17695, 3836, 10011, 278, 2620, -6256, 8040, -12274, 7615, 12130, -10626, 11246, 4174, -10733, 8065, 7895, 4467, 10999, 18297, 78, 18440, -2230, 7205, -6341, 7544, 15826, -8193, 5536, 14528, 7741, -7779, 2589, 7867, 6841, 16021, 2013, 7467, 10791, 247, 356, 12826, -1463, -10593, 11340, -14232, 8701, 7016, 13243, 8988, -4741, 9363, 11417, 2224, 9316, 2670, -8911, 2774, 14690, 9650, 19206, 12839, -4368, 9632, 7000, -283, 1860, -3016, -7961, -145, 11602, -4192, -3885, -9937, -651, -2564, 5328, -1307, -14952, 288, 7423, -74, -6375, 5993, -16016, -3962, -5676, -5978, 7835, 3494, -7353, -4769, -2819, -4486, 1135, -8899, -1782, 2860, 9034, 2985, -12625, -3405, 204, 1589, 10975, -6389, 6043, 2831, -10698, 3337, -10420, -9942, 4746, -10749, 3496, -1698, 6, -2368, -5393, -3429, 3111, -9618, 28, 7951, 3742, 8993, 228, 7437, 463, -21378, -9184, 17125, 4633, 9674, 6431, 10940, 10715, 1521, 3039, 719, -3003, -9716, 8528, 10782, 3876, 13768, 4359, 10694, 3952, 2190, 7684, -6527, -1062, 2066, 13343, -7784, -2740, 4049, -7640, 12121, 9184, -10117, 4513, 10879, 1661, 19322, 17504, -2258, -4857, -6364, 9395, -3893, -13630, -2731, 7403, -2343, 14458, -7980, -8676, 294, -12272, 7960, 10811, -8518, -985, -3208, 2115, 12788, 11750, 3605, 9479, 9953, -8485, -974, -545, -10780, -1791, -13284, -7282, 8775, -1529, 749, 6855, -684, -1595, 10142, 15875, 3334, -8237, 13734, -9911, 5915, -14091, -1235, -8856, 10737, 5866, 3082, -577, -12382, 2164, -3053, -1837, 14275, -3182, -8374, 12064, -5322, -8933, 1293, -4745, 1491, -2549, -4952, 1210, -932, -10551, -15865, -7398, 3362, 8490, -4204, 10322, -1036, 2239, 903, -3969, 1414, -12976, 12022, 1913, 4747, 708, 10125, -5279, 11702, 815, -7739, 6425, -7202, 1505, 9479, 5927, 4568, 4570, -10049, 9249, 9404, 2613, 1649, -2911, 11862, -9054, 5173, -1970, 9726, 7440, -4211, 12121, -1567, 8694, -12652, -8512, 4567, -7694, 2332, -1565, 1987, -7251, 4812, 3227, -4239, -4843, 2175, -2772, -3980, 5485, -19560, -3905, 7728, 5189, -4648, -90, -12898, -2317, 6713, -20013, -5814, -99, -3357, 4670, 412, 3536, -4176, 1428, 12724, -3787, -2903, 12752, 7096, -8817, 2366, 3278, -712, 5088, 6827, 1953, 11532, 2580, 13807, -11466, -1718, -9650, 4148, -4017, 1479, -851, 2168, 1697, -8414, 10778, 4056, 5747, -12494, 2920, -4864, 5359, -13916, 14633, -7374, 17460, -5258, 136, -649, -3849, 5853, -6642, -6714, 4764, 3929, -46, -3170, 7821, -15282, 3364, -8600, -14790, 190, -2513, -16053, 376, -4595, -7240, -9731, 7680, -19076, 7292, -7324, -6466, -7356, 4826, -4344, -2562, 5030, 8162, -7284, 2423, 1062, 8795, -11014, -3578, -1228, 11669, 12974, -1792, -8248, -12035, 14192, -3242, 9124, 2979, -8271, -6955, 1725, 12168, -7611, -2303, 8055, 3855, 14562, 11272, -1207, -1180, 8271, 10285, -9663, 4572, -6632, -14043, 3373, -1741, 8564, 6410, 4578, 5850, 9446, 5210, 7241, -4732, 2829, 11441, 186, -6816, -365, 6857, -8893, 5871, -4945, -3333, -1314, -11989, -7750, 7848, -8810, 3566, 1659, -1174, 3144, 10683, -8021, -10095, 10389, -6307, -9962, 11975, 3415, 5142, 8671, 1042, -12628, 1522, 9809, -15692, 2803, 12378, 20396, 10483, -4249, 5511, -11739, -9317, -12422, -8918, 6152, -18473, 3913, 11208, -11166, 10598, 8959, 10363, -519, -8415, -2411, -6142, 12508, 14810, 7101, 4799, 10337, 1272, -6589, 8867, 4394, 13057, 7783, -1603, -593, 6499, 11001, -5578, 2097, -5092, -13960, 2971, -3762, -8861, 2930, 13971, 8887, 8200, 11566, -7355, 559, 2921, -7541, 6531, 3505, 2, 15558, 14900, 2394, 15444, 17747, -5524, 16644, -7551, 3005, 10430, -5688, 192, -1306, -3455, -11039, 804, 9495, 4242, 1072, -3897, -5118, 10571, 8938, 16221, 9547, 4260, 5296, -3552, -2928, -2162, 7126, -1662, 1200, 2796, 8395, -1778, 9433, -7187, -9493, -2274, 7332, -4275, -9290, 14173, 7050, -1636, 5857, 1617, -14891, -3737, -4828, -13103, 887, 12799, 10440, 11177, 9441, 16440, -9008, -6757, -1790, -3326, 8196, 12704, -7038, -10728, 6535, 16672, 1653, -1238, -6150, 8225, 7879, 12083, -7415, 4661, 8717, 7936, 14854, 4872, -3863, 15275, 9894, 45, 228, -2995, -5653, -7455, -3298, 1697, -4560, 7879, 19924, -8141, -3683, 2066, 2396, 671, 7002, -3389, 6196, -8255, -3372, 9921, 9854, 12594, 4014, -13374, -1169, -1881, -9779, 13749, 1448, 8413, 1642, 10407, 4195, 1469, 11639, -1300, 11860, -4425, -8590, -3969, 1015, 4925, 12003, -8790, 13083, 4703, -1193, 15688, 413, -6896, 11029, 11583, 4515, 6188, -1085, 731, 14148, -9639, 2727, 13893, 11046, 13222, 5060, -2741, -5129, 8671, -16099, 7092, 12442, 1947, 5487, 2792, 6259, 5173, -1629, -2779, -2839, 11349, 8152, -3011, 3361, 7856, -11308, -6482, 2949, 1820, 4768, -1490, 247, -7777, 7987, 4888, -5432, 9118, 17397, -4265, -134, -3550, -6762, 2077, -646, -5113, 2932, 14803, 4410, -9433, 6735, -1524, 8015, 9144, -4758, -3964, -1989, -10208, 2632, 5050, 1049, 536, 8013, 1731, 9462, 10594, 4942, 488, -4460, -10740, -2314, 16320, -8866, -250, 14122, -1721, -9519, -1824, -3975, -6820, 6453, -9568, 4213, -1611, -1878, 1968, 1995, 9414, 5144, 1223, 2282, -2927, -10614, -560, -7760, 6164, -3838, -1135, 14190, 8819, 8909, 6401, 1365, -17789, -14850, 5214, -15480, 11390, 1151, -14174, -5763, 2015, 4213, 6492, 6044, -10792, 6692, 11758, -453, 1719, 8439, 7015, -6084, 8867, -7739, -8270, 7565, 5782, 10774, 4803, 6251, 8751, 6755, -4006, 16222, 973, -13390, 13311, 14705, -2043, 7762, 4570, 6706, 604, -5558, -4790, -7164, -3369, 4323, 15033, -807, 7220, 12895, -9588, 319, 11523, 8570, 13448, 16523, 4185, 3302, -1454, 3212, -14686, -13800, 4142, -15380, -8605, 4966, 9098, 8303, 9806, -11008, 1438, -5246, 447, 8145, 1924, 7225, 7787, -4027, -16759, -6603, 11229, -2830, 8864, 7691, 2472, 7254, 6147, -6600, 8611, 13609, 5739, -801, 9023, 3093, 9581, 12726, -1764, -786, 9640, -20016, -13673, -5857, -6463, -3695, 3379, 1025, 10369, 6532, -11416, 10797, -925, 1840, 1175, -4443, -11589, -13835, -707, -20201, -6350, -2205, -17306, 5100, -5279, 784, 10899, -6781, 12309, -5790, 12056, -3737, 4065, -14160, 1442, 16597, -289, 3115, -2846, -5707, 5299, 1690, 9799, -6629, -3828, -5635, 6825, 10182, 2557, 8404, -7285, 8068, 1147, -3864, -4488, 4813, 932, 1932, 10607, 3338, 1943, -3328, -60, 7772, 1593, -5468, -5718, 5498, 16483, 8015, 1098, -1735, -4308, -1593, -5474, 1575, -17567, 2510, 10179, -11342, 4247, -4559, -5291, 13738, 2697, 430, 12004, -2965, -16561, -7305, 9980, -8799, 4021, 13351, -10669, -4271, 3276, 7915, -6989, -1591, -6898, -4327, -10866, -1187, -6056, 9921, -14862, -2947, -8512, -8556, -1767, 6108, -10006, -625, 10850, -8063, -3079, 4959, -14827, 13121, -10376, -11204, -6125, -4980, -7714, -4580, -4732, -7975, 4984, 1244, -7942, -7471, 7883, -10702, -4426, -3004, -1355, 1222, -2645, -15202, 11037, 11456, 2033, -2371, -9041, -467, -7686, -6953, 2821, -10274, -11317, 9531, 10088, 4024, -13431, 10654, 5498, -7456, -4706, 15272, -13090, -2189, 9512, -2427, 9896, 10144, 7871, -630, -15958, -500, -1171, 8602, 12571, 16780, 11204, 17724, 10495, 213, 7892, 5805, 1171, 6218, 4716, 5609, 11090, -197, -7027, 6690, -3002, -5417, 4142, 7324, -7330, -6859, 2832, -5122, -1022, 3552, -15479, 2017, -2931, 8621, -4581, 3787, -4733, 3935, -6929, -1228, 7177, 8876, -3396, 6537, 8300, 5393, 4691, -3294, 1267, 12129, -1234, 5851, -10954, 3451, 6082, -18968, 12736, 4563, 1414, 8740, -793, -1594, 12412, 5427, 11424, -4620, -274, -6315, 7850, 5063, 649, 1650, 15174, 469, 7813, -7804, 671, 10257, 5390, 2147, -3607, -12879, 7719, -5925, 6227, 2205, -1219, -9875, 8307, -3513, 13560, 11179, 3609, -11591, -5944, 2434, 2104, 3258, 8754, 14898, 1920, 5157, 836, -6576, -4675, 5091, 3022, -4968, -15355, 2849, 5963, 3587, 6234, 3405, 11418, 154, 7320, -7450, -545, -7946, -8635, -2514, 4972, 14897, -18818, -12106, -1182, -402, -5983, 7727, 14083, 8005, 6564, -5173, 1551, 15264, 12829, 6888, -2851, 1510, 745, 2814, -13169, 9345, -2310, -5762, 13906, 8173}
#define LINEAR_1_BIAS {9727, -19243, -11056, 10715, 3985, -440, 3511, 7308, 10847, -4947, 4971, 3781, 3445, -8683, 10979, -6842, -1787, -8472, -7837, -7901, 4910, -1182, -360, 5229, -14775, 10224, 748, -4181, 11471, 4638, -10115, -3041, 1382, -5567, 1801, 6016, -3638, 6523, 7075, 13318, 1375, 12459, -9265, 11363, -11240, -8987, -2865, -3179, 5080, 4040, 4697, -6980, 2597, 4897, -404, -8468, -8782, 2693, 1545, 10068, 5916, 6090, 4113, 762}
#define LINEAR_2_WT {-8781, 3253, 2274, -10007, 1065, -6740, -11357, -592, -6281, -13312, -13817, -2077, -14036, 648, 3254, -4056, -374, 2065, 2602, 2996, -8764, -553, 2385, -3117, 1761, -3669, -8597, 5753, -12936, -7119, 3849, -10769, -5036, 1329, 10, -13792, -6272, -11959, -1259, -4003, -12045, -9493, -4405, -7380, 4459, 4538, -518, -8168, -7056, -3682, -5657, 1486, -5233, -6640, -9416, 3546, 1796, -7253, 1985, -11099, -2611, -9373, -1546, -3839, -5118, -814, -1889, 17162, -1600, -3521, 7683, -3827, 440, 8690, 3974, 3761, 5055, -966, 2468, 5205, -1371, 5185, -219, -744, 7318, 4496, 1886, 5213, 1294, -2120, -11286, 766, 2059, -6872, -4116, -1776, 13565, -2955, 3834, 15, 7839, 5072, 11919, 1073, 11700, 278, 7975, 4734, 1687, -2078, 13906, 11266, 6844, 7689, 14484, 628, -3649, -3269, 12012, -1084, 330, 8772, 9020, 2226, 8113, 1434, 5857, -1048, -6946, 5387, 2722, -5258, -5387, -2581, -13225, -9681, 1843, -8871, -12090, -7052, -3969, 2498, -6006, -5844, -1125, 5933, 4422, 2381, -6641, 2848, -2349, -5261, 6274, -6097, -4719, -680, -10787, -7907, 6723, -1957, -335, 3353, -8706, -13325, -5266, -6395, -3398, -1116, -9745, -10590, -5890, -10836, 1577, -424, -12666, -5713, 4148, -12448, -11557, 1175, -4694, -4048, -8069, 3747, 2447, -11942, -2968, 931, -1069, -3354, 2400, -5757, -9898, 6152, 5527, -7428, -2885, -3879, -1370, -4288, -2468, -3285, -13559, 5573, -9898, 3066, -7246, -3038, -5579, -4810, 1450, 3094, -8627, -191, 1738, -5232, 1503, -9047, -785, -2702, -10565, 124, 3001, -11396, -3850, 780, -8576, -7896, -9382, -5809, -10966, -5040, -6935, -10758, 4562, -5112, 6073, 1979, 1561, -3013, 196, -1138, -558, 6666, -2171, -4503, -11019, 1977, 2001, -6970, -2065, -6647, -4682, -5530, -5425, -4523, -993, -6800, 2268, 899, -9200, -12166, -7152, -1418, -3381, 6047, -2091, 4065, 1879, -7603, -6160, 6061, 2706, -2457, -1704, -482, -5299, 4275, 9260, 859, -1995, -1457, -3858, 3854, -3620, -2078, -10355, -10361, 10612, -2543, -5911, 3929, 4243, -175, -7020, 2406, 6476, -1165, -3610, 234, 5422, 6744, -3177, 2119, 6058, 8032, -7525, -3077, -4311, -8319, -1711, -7926, -2517, -1955, 9538, 3313, 7500, 3515, 3930, 2294, 3330, -3819, -6708, -1163, 1601, 5023, -1167, 5166, 7344, -11273, -465, -10215, 3379, -1419, 2265, -7678, -4934, -9599, 1154, 1184, -4908, -8004, 84, 328, -1768, 3246, 4295, -8306, 1489, 6483, -1052, -1183, -6200, -9490, -4992, 3895, -1858, 3161, -2096, 2528, -4693, 5437, -3903, 2596, -6368, -8969, -4004, -8950, 2772, -1911, -5882, -4672, 9825, 360, -743, 167, -342, 2073, -7071, 7004, -5028, 3901, 9440, -2196, 3479, -27, -1518, 18600, 6391, 7081, 7791, -1873, -5286, 6563, 1986, 3810, 10348, -1695, -1811, 8095, 5875, 5632, -97, -1091, 10071, -1825, -2400, -387, -576, -741, 3182, 26, 10675, -2899, -1463, 4448, 9005, 755, 11269, 7800, 7002, 2663, 3740, 2100, 11993, 6129, 6152, 6057, 2752, -2322, 8599, 4400, 9128, 12090, 14363, 428, 438, 5245, 13135, -1144, -1458, 9523, 7540, 9995, 13045, 337, 1647, 11678, 8524, -1684, -5344, -740, 2245, 9688, -1176, -869, 11948, -7323, 6450, -2271, 118, -783, 2248, -2160, 1940, -9227, 96, 1504, -4083, -3402, -4909, 4604, -4134, 4812, 9625, -3525, 1775, 7804, 285, 6816, -661, -5271, -8950, 1818, -8514, 3614, -2874, 4231, -4098, 5427, -1951, 247, -9409, -2881, -7226, -7906, -4114, -5537, -3524, -4744, 2104, 3322, -1424, 204, 179, -763, -8625, 133, -9015, 4764, 2230, 3083, 2240, 3192, -6832, -14854, 4859, 2824, -1828, 308, 4439, -5830, 437, -9488, 2179, 3205, 5375, -6024, 2234, -6593, 4935, 3820, -2495, -5861, 2219, 4948, 2569, 2737, 10907, -5768, -2968, 6905, 1574, 457, 1663, 2743, -14118, 4707, -7307, 7983, -2688, -2934, -6267, 630, -4124, 1939, 335, 1675, -12161, -2472, -5324, -9444, -8166, 1242, 6615, -3455, -1497, 9160, 2196, -8094, -12098, 420, -11806, 4829, 7353, -10457, -3273, -5158, -4103, 2524, -3350, 3180, -1067, -4627, 1505, -882, 2882, -2936, -4697, 1130, 3262, -2253, 721, -1932, -7210, -3836, 1686, -1487, -5649, 7204, -6217, -182, 2516, -6182, 7953, 3407, 845, 3576, -2125, -2101, -709, 5886, -1506, -2227, -195, -227, -1432, 549, 1497, 5958, -5353, -3361, -1296, 519, -56, -1934, -1403, -6872, 3340, -5737, 3232, 6560, -4392, 368, -2506, 2251, -1866, 2918, 789, -3645, -1367, 2900, 5726, -7338, -2069, -2694, 3943, -9581, -14008, -1420, -13690, -6327, -9445, 7039, -7838, -7329, -3757, -3556, 5083, 5421, 338, -5597, -2938, -1756, 2753, -10915, -7008, -1198, -6045, -612, 456, -5203, 1509, 4218, -5163, -8608, -4957, 675, -6933, -10128, 6771, -9307, 4286, -5165, 2848, -14, -4461, 620, -2956, 5797, -265, 5695, -8527, -1995, -10384, 2979, -1245, -1429, -8044, -7379, 4343, -7854, -7352, -8445, 2518, 1831, 4001, 7480, -1480, -5913, 3384, -1403, -8557, 4059, -9553, 2780, -970, -6201, 3002, 392, 8359, -5992, -4322, -6531, 1592, -1775, 2436, -8505, 4308, -6090, -1762, 829, -7408, -1090, -3645, -2663, 687, 1307, 8628, -1697, -6522, -2058, 10315, -5039, 3462, -2729, 3249, 6565, -4495, -4717, 12206, 5430, 3166, 10582, 4994, 1662, -4323, 5711, 987, -1739, -8141, 8120, 4447, -7543, 3450, -1117, 426, 10512, -2014, 6261, 4041, 5001, 1139, 4329, 190, -3977, -6474, 3208, -10002, -1836, -691, -4177, -2073, -3625, 8605, -1633, -3379, -8794, 1882, 5710, -1440, -2800, -1838, -11118, -2344, 8487, 2200, -3473, 3959, -3523, 444, -5120, 10263, -2569, 530, -2011, 12884, -7524, 6033, -3585, 3438, 5365, -4641, 942, 5048, 8348, 12200, -960, 1467, 8262, -876, 7677, 7370, -2731, -6613, 512, 9914, -8067, 12756, -3681, -7806, 11181, -5369, 91, 856, -669, -4986, -3956, -8626, -974, -6860, -526, -3272, -250, -4945, 3018, -7259, 5710, 4666, -296, 3226, -1814, -2130, 9525, 1789, -4962, -1705, -1992, -5392, 8112, 4315, -7296, 4017, -6765, 5126, -1367, 7361, 2039, 6477, -1539, -4482, 1947, 10610, -1406, -830, -5099, 6783, -587, 7584, 7322, 2927, 13677, 10496, 6126, -6173, -6677, 4624, -1569, 3005, -838, 13381, -5632, -1731, -881, 804, -2710, 6375, -4467, -6489, -10596, 3630, 2751, -4428, 6269, 10604, -11059, 1332, -3757, 3457, -1876, 2871, -6547, -9380, -8308, 969, -88, -4632, -8292, -8633, -627, -558, 1823, 5185, -8419, 3896, 5415, -947, 9606, -9825, -776, -2908, 3160, -5185, 1662, 4676, 3443, -4335, -700, -6810, 3343, -4959, -896, 1163, -5726, -5494, -5473, -673, -4409, 2677, 3317, -4654, -175, 1302, 1786, -7422, 3013, -5081, 5501, 7441, -3306, -5522, 61, 4493, 11038, -933, -520, 3533, -2410, -4880, 4660, -3762, 7844, -224, -2821, -2052, 2302, 5594, 6708, -3735, -1549, 7237, 3039, -79, -186, 1246, -6087, -6244, 2525, 2776, -5948, -1592, 913, 10481, -5240, 8280, 1161, 7126, 378, 6887, 1154, 10886, -2215, -892, 2968, -1952, 5135, 10555, 6337, 4939, 7675, 8905, 2071, -3781, -1940, 8442, -2121, -3525, -1472, 11060, 35, 2636, 1200, -6425, 158}
#define LINEAR_2_BIAS {-13436, -4374, -6193, -12216, -5422, 16415, 7033, 14417, 7609, 1843, -7524, -2174, 963, -11843, 12874, -2324}
#define LINEAR_3_WT {8648, -4674, 8691, 6569, -6773, -3864, -8722, -7124, 6972, -4000, -651, -7246, 3079, 5643, -8406, -7980, -6373, 3213, 2442, -8259, -5835, 11055, 2095, 8217, 4864, 766, -9435, -2128, -2010, -2259, 7286, -6067, -9114, -14735, -10234, -7131, -1936, -14857, -19237, -16263, -20990, -6342, -12630, -9080, -14987, -14580, -15429, -16598, -4876, 5974, -5967, -2091, 6065, -423, 3208, -4650, -2321, -8583, -6503, 7592, 6283, 6723, -6100, 3581}
#define LINEAR_3_BIAS {-10821, 17813, -18422, -2935}
